{"learner":{"attributes":{"scikit_learn":"{\"_estimator_type\": \"regressor\"}"},"feature_names":[],"feature_types":[],"gradient_booster":{"model":{"cats":{"enc":[],"feature_segments":[],"sorted_idx":[]},"gbtree_model_param":{"num_parallel_tree":"1","num_trees":"300"},"iteration_indptr":[0,1,2,3,4,5,6,7,8,9,10,11,12,13,14,15,16,17,18,19,20,21,22,23,24,25,26,27,28,29,30,31,32,33,34,35,36,37,38,39,40,41,42,43,44,45,46,47,48,49,50,51,52,53,54,55,56,57,58,59,60,61,62,63,64,65,66,67,68,69,70,71,72,73,74,75,76,77,78,79,80,81,82,83,84,85,86,87,88,89,90,91,92,93,94,95,96,97,98,99,100,101,102,103,104,105,106,107,108,109,110,111,112,113,114,115,116,117,118,119,120,121,122,123,124,125,126,127,128,129,130,131,132,133,134,135,136,137,138,139,140,141,142,143,144,145,146,147,148,149,150,151,152,153,154,155,156,157,158,159,160,161,162,163,164,165,166,167,168,169,170,171,172,173,174,175,176,177,178,179,180,181,182,183,184,185,186,187,188,189,190,191,192,193,194,195,196,197,198,199,200,201,202,203,204,205,206,207,208,209,210,211,212,213,214,215,216,217,218,219,220,221,222,223,224,225,226,227,228,229,230,231,232,233,234,235,236,237,238,239,240,241,242,243,244,245,246,247,248,249,250,251,252,253,254,255,256,257,258,259,260,261,262,263,264,265,266,267,268,269,270,271,272,273,274,275,276,277,278,279,280,281,282,283,284,285,286,287,288,289,290,291,292,293,294,295,296,297,298,299,300],"tree_info":[0,0,0,0,0,0,0,0,0,0,0,0,0,0,0,0,0,0,0,0,0,0,0,0,0,0,0,0,0,0,0,0,0,0,0,0,0,0,0,0,0,0,0,0,0,0,0,0,0,0,0,0,0,0,0,0,0,0,0,0,0,0,0,0,0,0,0,0,0,0,0,0,0,0,0,0,0,0,0,0,0,0,0,0,0,0,0,0,0,0,0,0,0,0,0,0,0,0,0,0,0,0,0,0,0,0,0,0,0,0,0,0,0,0,0,0,0,0,0,0,0,0,0,0,0,0,0,0,0,0,0,0,0,0,0,0,0,0,0,0,0,0,0,0,0,0,0,0,0,0,0,0,0,0,0,0,0,0,0,0,0,0,0,0,0,0,0,0,0,0,0,0,0,0,0,0,0,0,0,0,0,0,0,0,0,0,0,0,0,0,0,0,0,0,0,0,0,0,0,0,0,0,0,0,0,0,0,0,0,0,0,0,0,0,0,0,0,0,0,0,0,0,0,0,0,0,0,0,0,0,0,0,0,0,0,0,0,0,0,0,0,0,0,0,0,0,0,0,0,0,0,0,0,0,0,0,0,0,0,0,0,0,0,0,0,0,0,0,0,0,0,0,0,0,0,0,0,0,0,0,0,0,0,0,0,0,0,0,0,0,0,0,0,0,0,0,0,0,0,0],"trees":[{"base_weights":[-5.3717415E-3,-2.8431532E-1,1.136509E0,-3.37842E-1,3.9131132E-1,7.8688633E-1,1.6347133E0,-5.380754E-1,-1.5658802E-1,4.829225E-2,2.1015796E-1,9.287918E-1,-1.7435739E-2,6.5704085E-2,1.06102884E-1,-7.088394E-1,-2.9915002E-1,3.431304E-2,-3.9010423E-1,-2.507237E-3,2.3265243E-2,6.5069216E-1,6.930957E-2,-4.0261167E-1,-8.0063117E-1,-3.6422783E-1,5.3111208E-3,-1.318115E-1,1.9577624E-1,-1.4781955E-1,-5.02766E-1,5.3521737E-2,3.9863062E-1,-1.379932E-2,-2.5907798E-2,-6.1707307E-2,-5.9981394E-1,-2.1043454E-1,-6.5038925E-1,-3.279065E-1,1.0028832E-1,1.23337455E-1,2.761731E-2,-1.5264492E-2,-2.8958742E-2,-4.124718E-1,-4.5992613E-2,9.042738E-3,2.9864592E-2,-3.6131746E-1,-7.3964566E-1,1.0558042E-3,-2.985995E-1,-2.0229671E-2,-4.799811E-2,-4.0250868E-1,-2.7462335E-3,-8.5727945E-2,2.1660976E-2,-1.2418298E-2,2.0017934E-1,-6.8294425E-3,5.621321E-3,-3.423705E-1,-5.3582704E-1,-1.0426904E-2,-2.4807476E-2,-4.605318E-2,-2.8220812E-2,4.501329E-3,-4.3938295E-3,-2.2702E-2,5.556528E-3,-2.1732706E-1,-3.6791053E-2,-1.6758784E-3,-7.1660946E-3,3.0476907E-1,3.9964374E-2,-3.1758558E-2,-2.3346168E-1,-4.1218136E-2,-1.14285E-2,-1.6861856E-2,-6.2378366E-3,2.1243205E-2,7.10688E-3,-6.2543126E-3,8.297416E-3,-2.2880847E-2,1.6950548E-3],"categories":[],"categories_nodes":[],"categories_segments":[],"categories_sizes":[],"default_left":[0,0,0,0,0,0,0,0,0,0,0,0,0,0,0,0,0,0,0,0,0,0,0,0,0,0,0,0,0,0,0,0,0,0,0,0,0,0,0,0,0,0,0,0,0,0,0,0,0,0,0,0,0,0,0,0,0,0,0,0,0,0,0,0,0,0,0,0,0,0,0,0,0,0,0,0,0,0,0,0,0,0,0,0,0,0,0,0,0,0,0],"id":0,"left_children":[1,3,5,7,9,11,13,15,17,-1,19,21,-1,-1,-1,23,25,27,29,-1,-1,31,-1,33,35,37,-1,39,41,43,45,-1,47,-1,-1,-1,49,51,53,55,57,59,-1,-1,61,63,-1,-1,-1,65,67,69,71,-1,-1,73,-1,75,-1,-1,77,-1,-1,79,81,-1,-1,-1,-1,-1,-1,-1,-1,83,-1,-1,-1,85,87,-1,89,-1,-1,-1,-1,-1,-1,-1,-1,-1,-1],"loss_changes":[1.2167936E2,1.1234564E1,1.177742E1,1.0259277E1,1.8098636E0,7.477463E0,1.476387E0,5.295929E0,6.744738E0,0E0,9.78248E-1,2.827488E0,0E0,0E0,0E0,1.8701782E0,1.5249434E0,2.2789376E0,1.781826E0,0E0,0E0,1.5094595E0,0E0,8.1035614E-2,3.012104E0,2.0636215E0,0E0,1.944457E0,8.778074E-1,3.393252E-1,1.0098867E0,0E0,4.0449834E-1,0E0,0E0,0E0,1.0000296E0,6.3428044E-1,7.2549486E-1,4.578879E-1,1.1113648E0,1.0045093E0,0E0,0E0,1.715439E-1,1.4514828E-1,0E0,0E0,0E0,1.5321136E-1,5.5651665E-2,7.695909E-2,1.095E0,0E0,0E0,7.2252274E-1,0E0,2.7380235E-2,0E0,0E0,4.9052536E-1,0E0,0E0,5.4127836E-1,6.64526E-1,0E0,0E0,0E0,0E0,0E0,0E0,0E0,0E0,7.46302E-2,0E0,0E0,0E0,1.984458E-1,2.3390229E-1,0E0,9.5516276E-1,0E0,0E0,0E0,0E0,0E0,0E0,0E0,0E0,0E0,0E0],"parents":[2147483647,0,0,1,1,2,2,3,3,4,4,5,5,6,6,7,7,8,8,10,10,11,11,15,15,16,16,17,17,18,18,21,21,23,23,24,24,25,25,27,27,28,28,29,29,30,30,32,32,36,36,37,37,38,38,39,39,40,40,41,41,44,44,45,45,49,49,50,50,51,51,52,52,55,55,57,57,60,60,63,63,64,64,73,73,77,77,78,78,80,80],"right_children":[2,4,6,8,10,12,14,16,18,-1,20,22,-1,-1,-1,24,26,28,30,-1,-1,32,-1,34,36,38,-1,40,42,44,46,-1,48,-1,-1,-1,50,52,54,56,58,60,-1,-1,62,64,-1,-1,-1,66,68,70,72,-1,-1,74,-1,76,-1,-1,78,-1,-1,80,82,-1,-1,-1,-1,-1,-1,-1,-1,84,-1,-1,-1,86,88,-1,90,-1,-1,-1,-1,-1,-1,-1,-1,-1,-1],"split_conditions":[7.6480436E-1,1.3521748E0,7.3494464E-1,-3.478464E-1,-7.6268077E-1,4.7469324E-1,1.335485E0,-1.6149705E-2,-2.275481E-2,4.829225E-2,-5.716573E-1,1.4708505E0,-1.7435739E-2,6.5704085E-2,1.06102884E-1,-8.8028766E-2,7.3494464E-1,-1.520377E-1,-2.9377213E-1,-2.507237E-3,2.3265243E-2,-7.0525885E-1,6.930957E-2,-7.7216107E-1,3.2345796E-1,1.1771459E-1,5.3111208E-3,1.5186812E-1,4.263296E-1,7.757654E-2,1.2826211E0,5.3521737E-2,1.1263615E0,-1.379932E-2,-2.5907798E-2,-6.1707307E-2,-1.3054715E-1,2.6432312E-1,2.980233E-1,-3.5750034E-1,-1.9090044E-1,-1.4128073E-1,2.761731E-2,-1.5264492E-2,-2.3248339E-1,7.3494464E-1,-4.5992613E-2,9.042738E-3,2.9864592E-2,5.292013E-1,9.40688E-1,-8.773038E-1,1.4731827E0,-2.0229671E-2,-4.799811E-2,-4.5012128E-1,-2.7462335E-3,-6.2518924E-1,2.1660976E-2,-1.2418298E-2,-7.0525885E-1,-6.8294425E-3,5.621321E-3,2.2058627E-1,1.1464313E0,-1.0426904E-2,-2.4807476E-2,-4.605318E-2,-2.8220812E-2,4.501329E-3,-4.3938295E-3,-2.2702E-2,5.556528E-3,-2.017062E-1,-3.6791053E-2,-1.6758784E-3,-7.1660946E-3,-3.5667923E-1,3.2411382E-1,-3.1758558E-2,3.2972834E-1,-4.1218136E-2,-1.14285E-2,-1.6861856E-2,-6.2378366E-3,2.1243205E-2,7.10688E-3,-6.2543126E-3,8.297416E-3,-2.2880847E-2,1.6950548E-3],"split_indices":[2,6,6,2,3,3,2,4,3,0,2,2,0,0,0,6,6,4,6,0,0,6,0,2,6,6,0,2,6,2,3,0,2,0,0,0,3,4,4,4,6,2,0,0,4,6,0,0,0,6,6,2,4,0,0,3,0,3,0,0,6,0,0,6,6,0,0,0,0,0,0,0,0,2,0,0,0,3,4,0,3,0,0,0,0,0,0,0,0,0,0],"split_type":[0,0,0,0,0,0,0,0,0,0,0,0,0,0,0,0,0,0,0,0,0,0,0,0,0,0,0,0,0,0,0,0,0,0,0,0,0,0,0,0,0,0,0,0,0,0,0,0,0,0,0,0,0,0,0,0,0,0,0,0,0,0,0,0,0,0,0,0,0,0,0,0,0,0,0,0,0,0,0,0,0,0,0,0,0,0,0,0,0,0,0],"sum_hessian":[3.8E2,3.06E2,7.4E1,2.84E2,2.2E1,4.5E1,2.9E1,1.34E2,1.5E2,5E0,1.7E1,4E1,5E0,1.3E1,1.6E1,7.7E1,5.7E1,8.3E1,6.7E1,8E0,9E0,2.3E1,1.7E1,1.9E1,5.8E1,4.9E1,8E0,4.1E1,4.2E1,2.2E1,4.5E1,9E0,1.4E1,7E0,1.2E1,2.1E1,3.7E1,3.3E1,1.6E1,2.2E1,1.9E1,3.5E1,7E0,1E1,1.2E1,3.7E1,8E0,6E0,8E0,1.5E1,2.2E1,1E1,2.3E1,8E0,8E0,1.7E1,5E0,1.2E1,7E0,6E0,2.9E1,7E0,5E0,2.6E1,1.1E1,6E0,9E0,1.4E1,8E0,5E0,5E0,1.8E1,5E0,1.1E1,6E0,6E0,6E0,1.7E1,1.2E1,7E0,1.9E1,6E0,5E0,5E0,6E0,1.1E1,6E0,5E0,7E0,1.1E1,8E0],"tree_param":{"num_deleted":"0","num_feature":"8","num_nodes":"91","size_leaf_vector":"1"}},{"base_weights":[8.36832E-3,-3.1304842E-1,8.761174E-1,-6.804906E-1,-6.7022316E-2,5.544032E-1,1.383788E0,-7.8241014E-1,3.9130226E-1,3.4695014E-1,-2.1280941E-1,1.0415529E0,3.0421495E-1,6.4900436E-2,1.0860389E-1,-8.139794E-1,-1.566703E-2,4.1719805E-2,-1.8783452E-3,4.52832E-2,4.6096155E-1,-4.5022693E-1,-1.2995936E-1,3.5527732E-2,6.538774E-2,9.1559105E-2,3.666498E-1,-8.4779733E-1,-1.7252201E-2,1.575701E-2,-6.592626E-3,1.2725352E-3,5.35697E-1,-5.6879777E-1,-1.5059723E-1,-1.8512234E-1,1.5025537E-1,1.0254368E-2,-7.247568E-5,2.4633096E-1,3.113248E-2,-5.7166576E-2,-7.437769E-1,3.3844793E-1,4.8685037E-2,-4.3317102E-2,-4.359639E-1,-1.7430043E-3,-1.3590447E-2,-2.2846031E-1,-1.3524228E-2,2.3384792E-1,-2.3310103E-3,1.7801364E-3,3.0103284E-1,-8.1524074E-1,-5.457945E-1,2.540525E-2,1.9949779E-1,-3.208916E-2,-8.374929E-3,-2.5813985E-1,-8.531917E-2,-9.7308785E-2,9.4558755E-3,1.3140391E-4,2.215111E-2,2.0207485E-2,1.0596411E-2,-5.6602526E-2,-4.0422536E-2,-4.109596E-2,-3.5467547E-1,1.1543061E-3,1.915808E-2,-1.24001496E-1,-2.888562E-1,-6.955408E-3,-9.925703E-4,-9.537682E-3,1.0077533E-3,-8.299304E-3,-2.665357E-2,-1.064372E-2,-2.6825075E-3,-3.915821E-1,-2.0967391E-1,-2.5983296E-2,-1.4624164E-2,-3.4643759E-3,-1.7957883E-2],"categories":[],"categories_nodes":[],"categories_segments":[],"categories_sizes":[],"default_left":[0,0,0,0,0,0,0,0,0,0,0,0,0,0,0,0,0,0,0,0,0,0,0,0,0,0,0,0,0,0,0,0,0,0,0,0,0,0,0,0,0,0,0,0,0,0,0,0,0,0,0,0,0,0,0,0,0,0,0,0,0,0,0,0,0,0,0,0,0,0,0,0,0,0,0,0,0,0,0,0,0,0,0,0,0,0,0,0,0,0,0],"id":1,"left_children":[1,3,5,7,9,11,13,15,17,19,21,23,25,-1,-1,27,-1,-1,-1,29,31,33,35,-1,-1,37,39,41,-1,-1,-1,-1,43,45,47,49,51,-1,-1,53,-1,-1,55,57,-1,-1,59,-1,-1,61,63,65,-1,-1,67,69,71,-1,73,-1,-1,75,77,79,-1,-1,-1,-1,-1,-1,-1,-1,81,-1,-1,83,85,-1,-1,-1,-1,-1,-1,-1,-1,87,89,-1,-1,-1,-1],"loss_changes":[1.1351135E2,2.68033E1,1.7198555E1,1.3305325E1,1.0876815E1,8.092802E0,2.88208E0,1.4919586E0,1.7084616E0,1.5956187E0,2.5576062E0,5.021267E-1,5.90456E-1,0E0,0E0,1.4728546E0,0E0,0E0,0E0,5.8110213E-1,1.1008081E0,1.1222701E0,1.5735636E0,0E0,0E0,1.0396824E-1,7.018876E-1,1.0284348E0,0E0,0E0,0E0,0E0,1.6534939E0,3.3318138E-1,1.15733966E-1,6.215942E-1,2.8298473E-1,0E0,0E0,2.7166426E-1,0E0,0E0,4.6055603E-1,2.3944235E-1,0E0,0E0,6.004567E-1,0E0,0E0,2.6261592E-1,2.9374167E-1,4.5740747E-1,0E0,0E0,6.215751E-2,6.022072E-2,4.79784E-1,0E0,2.787893E-1,0E0,0E0,1.9079494E-1,3.276418E-2,1.1482468E-1,0E0,0E0,0E0,0E0,0E0,0E0,0E0,0E0,2.367537E-1,0E0,0E0,5.219622E-2,2.7579474E-1,0E0,0E0,0E0,0E0,0E0,0E0,0E0,0E0,5.2893877E-2,4.3191516E-1,0E0,0E0,0E0,0E0],"parents":[2147483647,0,0,1,1,2,2,3,3,4,4,5,5,6,6,7,7,8,8,9,9,10,10,11,11,12,12,15,15,19,19,20,20,21,21,22,22,25,25,26,26,27,27,32,32,33,33,34,34,35,35,36,36,39,39,42,42,43,43,46,46,49,49,50,50,51,51,54,54,55,55,56,56,58,58,61,61,62,62,63,63,72,72,75,75,76,76,85,85,86,86],"right_children":[2,4,6,8,10,12,14,16,18,20,22,24,26,-1,-1,28,-1,-1,-1,30,32,34,36,-1,-1,38,40,42,-1,-1,-1,-1,44,46,48,50,52,-1,-1,54,-1,-1,56,58,-1,-1,60,-1,-1,62,64,66,-1,-1,68,70,72,-1,74,-1,-1,76,78,80,-1,-1,-1,-1,-1,-1,-1,-1,82,-1,-1,84,86,-1,-1,-1,-1,-1,-1,-1,-1,88,90,-1,-1,-1,-1],"split_conditions":[4.9211448E-1,-6.7704344E-1,1.268621E0,1.3521748E0,-6.431524E-1,-3.7570292E-1,2.2476723E0,1.1992325E0,-1.1572683E0,-4.8043755E-1,7.0046306E-2,-9.997518E-1,-4.303363E-1,6.4900436E-2,1.0860389E-1,4.2664567E-1,-1.566703E-2,4.1719805E-2,-1.8783452E-3,4.263296E-1,-1.0889016E0,5.292013E-1,1.3181441E0,3.5527732E-2,6.538774E-2,-6.401473E-1,8.73168E-1,4.263296E-1,-1.7252201E-2,1.575701E-2,-6.592626E-3,1.2725352E-3,1.1464313E0,-6.8580574E-1,-1.259472E-1,-3.966438E-1,1.0655187E0,1.0254368E-2,-7.247568E-5,5.516173E-1,3.113248E-2,-5.7166576E-2,-3.5717577E-2,-2.682556E-1,4.8685037E-2,-4.3317102E-2,-8.3023585E-2,-1.7430043E-3,-1.3590447E-2,2.9074612E-1,-1.3473839E-1,1.8530432E0,-2.3310103E-3,1.7801364E-3,7.160065E-1,-1.0889016E0,6.32073E-1,2.540525E-2,-5.618759E-1,-3.208916E-2,-8.374929E-3,3.3749583E-1,6.940952E-1,1.0017041E-1,9.4558755E-3,1.3140391E-4,2.215111E-2,2.0207485E-2,1.0596411E-2,-5.6602526E-2,-4.0422536E-2,-4.109596E-2,1.501772E-1,1.1543061E-3,1.915808E-2,-6.0238713E-1,6.940952E-1,-6.955408E-3,-9.925703E-4,-9.537682E-3,1.0077533E-3,-8.299304E-3,-2.665357E-2,-1.064372E-2,-2.6825075E-3,-2.057832E-1,-1.3473839E-1,-2.5983296E-2,-1.4624164E-2,-3.4643759E-3,-1.7957883E-2],"split_indices":[0,0,0,6,7,7,0,4,0,0,7,7,4,0,0,7,0,0,0,6,7,6,7,0,0,4,0,6,0,0,0,0,6,4,4,6,4,0,0,0,0,0,4,0,0,0,0,0,0,0,0,7,0,0,0,7,6,0,4,0,0,7,7,4,0,0,0,0,0,0,0,0,4,0,0,6,7,0,0,0,0,0,0,0,0,0,0,0,0,0,0],"split_type":[0,0,0,0,0,0,0,0,0,0,0,0,0,0,0,0,0,0,0,0,0,0,0,0,0,0,0,0,0,0,0,0,0,0,0,0,0,0,0,0,0,0,0,0,0,0,0,0,0,0,0,0,0,0,0,0,0,0,0,0,0,0,0,0,0,0,0,0,0,0,0,0,0,0,0,0,0,0,0,0,0,0,0,0,0,0,0,0,0,0,0],"sum_hessian":[4.05E2,2.96E2,1.09E2,1.18E2,1.78E2,6.8E1,4.1E1,1.08E2,1E1,4.6E1,1.32E2,2.2E1,4.6E1,3.2E1,9E0,1.01E2,7E0,5E0,5E0,1.3E1,3.3E1,3.3E1,9.9E1,7E0,1.5E1,1.1E1,3.5E1,9.4E1,7E0,5E0,8E0,5E0,2.8E1,2.3E1,1E1,8.3E1,1.6E1,5E0,6E0,2.3E1,1.2E1,3.1E1,6.3E1,1.9E1,9E0,7E0,1.6E1,5E0,5E0,6.6E1,1.7E1,1.1E1,5E0,5E0,1.8E1,4.4E1,1.9E1,9E0,1E1,1E1,6E0,5.4E1,1.2E1,1.2E1,5E0,5E0,6E0,1E1,8E0,1E1,3.4E1,8E0,1.1E1,5E0,5E0,1.1E1,4.3E1,7E0,5E0,7E0,5E0,5E0,6E0,5E0,6E0,1.7E1,2.6E1,9E0,8E0,1.2E1,1.4E1],"tree_param":{"num_deleted":"0","num_feature":"8","num_nodes":"91","size_leaf_vector":"1"}},{"base_weights":[-1.7074214E-2,-3.2424232E-1,8.7749445E-1,-6.414789E-1,-1.5501356E-1,7.020911E-1,1.12424724E-1,-2.7042773E-1,-7.6325685E-1,-2.0914005E-1,8.177358E-2,5.1078105E-1,1.0868888E0,-5.244492E-1,2.2127535E-2,-3.8029993E-1,-8.281058E-1,-1.6808884E-1,-4.5713675E-1,-6.8940975E-2,2.8389525E-1,3.6663094E-1,8.707884E-1,5.0670188E-2,7.947072E-2,-7.813589E-3,-4.000129E-2,-3.2285254E-2,-2.7144428E-3,-5.4108396E-2,-7.187784E-1,-2.069059E-1,1.940793E-2,-9.487626E-3,-3.379616E-2,-1.1029092E-2,-1.9126996E-2,2.7288131E-2,1.4492859E-1,2.1680476E-1,3.1552225E-2,2.370085E-2,5.9657168E-2,-2.4036216E-2,-7.6492745E-1,1.3975955E-2,-2.352793E-1,5.875465E-3,-9.688332E-2,1.1275178E-2,3.4811047E-3,1.8993163E-2,-4.747201E-3,-4.5431238E-2,-2.7216718E-2,-3.2078642E-2,-2.0290247E-1,4.400367E-4,-1.0304465E-2,-2.8723574E-1,-5.3500116E-2,-3.4227613E-1,-8.9030035E-2,-2.3672639E-1,2.7681274E-2,-2.3436788E-3,-2.2150302E-2,-7.358169E-4,-1.0851666E-2,9.715965E-4,-2.2092644E-2,8.276071E-3,-9.260451E-3],"categories":[],"categories_nodes":[],"categories_segments":[],"categories_sizes":[],"default_left":[0,0,0,0,0,0,0,0,0,0,0,0,0,0,0,0,0,0,0,0,0,0,0,0,0,0,0,0,0,0,0,0,0,0,0,0,0,0,0,0,0,0,0,0,0,0,0,0,0,0,0,0,0,0,0,0,0,0,0,0,0,0,0,0,0,0,0,0,0,0,0,0,0],"id":2,"left_children":[1,3,5,7,9,11,-1,13,15,17,19,21,23,25,-1,27,29,31,33,35,37,39,41,-1,-1,-1,-1,-1,-1,-1,43,45,-1,-1,-1,-1,47,-1,49,51,-1,-1,-1,-1,53,-1,55,-1,57,-1,-1,-1,-1,-1,-1,-1,59,-1,-1,61,63,65,67,69,71,-1,-1,-1,-1,-1,-1,-1,-1],"loss_changes":[1.0964815E2,1.5845171E1,1.9096855E1,4.4477386E0,2.5163107E0,6.070244E0,0E0,4.796368E0,1.5973167E0,1.5418701E0,1.1466911E0,2.8982391E0,4.3577194E-1,1.4015818E0,0E0,8.3772635E-1,3.38459E-1,2.8446887E0,8.49648E-1,1.3828537E-1,3.9006138E-1,1.2655663E0,1.0769577E0,0E0,0E0,0E0,0E0,0E0,0E0,0E0,2.1004868E-1,1.7376075E0,0E0,0E0,0E0,0E0,1.7537734E-1,0E0,3.9832413E-2,1.088808E0,0E0,0E0,0E0,0E0,9.5436096E-2,0E0,1.2349987E0,0E0,1.0368318E-1,0E0,0E0,0E0,0E0,0E0,0E0,0E0,1.4083862E0,0E0,0E0,7.549982E-1,6.3128465E-1,9.3367386E-1,1.3443938E-1,5.3929174E-1,7.3258466E-1,0E0,0E0,0E0,0E0,0E0,0E0,0E0,0E0],"parents":[2147483647,0,0,1,1,2,2,3,3,4,4,5,5,7,7,8,8,9,9,10,10,11,11,12,12,13,13,15,15,16,16,17,17,18,18,19,19,20,20,21,21,22,22,30,30,31,31,36,36,38,38,39,39,44,44,46,46,48,48,56,56,59,59,60,60,61,61,62,62,63,63,64,64],"right_children":[2,4,6,8,10,12,-1,14,16,18,20,22,24,26,-1,28,30,32,34,36,38,40,42,-1,-1,-1,-1,-1,-1,-1,44,46,-1,-1,-1,-1,48,-1,50,52,-1,-1,-1,-1,54,-1,56,-1,58,-1,-1,-1,-1,-1,-1,-1,60,-1,-1,62,64,66,68,70,72,-1,-1,-1,-1,-1,-1,-1,-1],"split_conditions":[5.516173E-1,-6.9267553E-1,2.02984E0,-1.2767256E0,2.3583767E-1,1.268621E0,1.12424724E-1,1.0147802E0,-5.0826037E-1,7.870053E-1,-2.6979172E-1,3.2941192E-1,-1.2750025E-1,-1.2750025E-1,2.2127535E-2,-6.605644E-1,-1.0425209E0,5.1945984E-1,-4.3068376E-1,-1.439382E-1,-1.6174655E-1,9.760162E-1,7.4497354E-1,5.0670188E-2,7.947072E-2,-7.813589E-3,-4.000129E-2,-3.2285254E-2,-2.7144428E-3,-5.4108396E-2,-8.054405E-1,-1.157855E0,1.940793E-2,-9.487626E-3,-3.379616E-2,-1.1029092E-2,2.4885778E-1,2.7288131E-2,4.745774E-1,-6.605644E-1,3.1552225E-2,2.370085E-2,5.9657168E-2,-2.4036216E-2,-7.4326974E-1,1.3975955E-2,-1.0131534E0,5.875465E-3,-5.722655E-1,1.1275178E-2,3.4811047E-3,1.8993163E-2,-4.747201E-3,-4.5431238E-2,-2.7216718E-2,-3.2078642E-2,7.863241E-1,4.400367E-4,-1.0304465E-2,1.5186812E-1,-4.8043755E-1,-8.773038E-1,6.875908E-2,-6.6424125E-1,-8.5712984E-2,-2.3436788E-3,-2.2150302E-2,-7.358169E-4,-1.0851666E-2,9.715965E-4,-2.2092644E-2,8.276071E-3,-9.260451E-3],"split_indices":[0,0,2,2,0,0,0,1,1,3,3,1,1,1,0,1,0,3,0,2,2,2,0,0,0,0,0,0,0,0,2,2,0,0,0,0,2,0,0,1,0,0,0,0,0,0,2,0,3,0,0,0,0,0,0,0,1,0,0,2,0,2,0,2,0,0,0,0,0,0,0,0,0],"split_type":[0,0,0,0,0,0,0,0,0,0,0,0,0,0,0,0,0,0,0,0,0,0,0,0,0,0,0,0,0,0,0,0,0,0,0,0,0,0,0,0,0,0,0,0,0,0,0,0,0,0,0,0,0,0,0,0,0,0,0,0,0,0,0,0,0,0,0,0,0,0,0,0,0],"sum_hessian":[3.97E2,2.96E2,1.01E2,1.02E2,1.94E2,8.9E1,1.2E1,2.6E1,7.6E1,1.58E2,3.6E1,6.1E1,2.8E1,1.9E1,7E0,1.2E1,6.4E1,1.37E2,2.1E1,2.1E1,1.5E1,4.5E1,1.6E1,2.1E1,7E0,7E0,1.2E1,7E0,5E0,2.4E1,4E1,1.28E2,9E0,8E0,1.3E1,5E0,1.6E1,5E0,1E1,2.7E1,1.8E1,6E0,1E1,7E0,3.3E1,7E0,1.21E2,6E0,1E1,5E0,5E0,1.9E1,8E0,2.6E1,7E0,9E0,1.12E2,5E0,5E0,7.1E1,4.1E1,5.5E1,1.6E1,1.2E1,2.9E1,9E0,4.6E1,1E1,6E0,5E0,7E0,1.8E1,1.1E1],"tree_param":{"num_deleted":"0","num_feature":"8","num_nodes":"73","size_leaf_vector":"1"}},{"base_weights":[-4.749709E-2,-3.0489278E-1,7.5669247E-1,-6.217447E-1,-7.355126E-2,5.23168E-1,1.3513987E0,-7.044561E-1,2.433957E-1,-1.4996435E-1,3.2422507E-1,3.1492606E-1,7.5972897E-1,5.8108225E-2,9.139041E-2,-2.9926187E-1,-7.7919775E-1,4.145455E-2,-1.2359721E-2,1.0136422E-1,-2.2450344E-1,4.5853457E-1,1.6830058E-1,4.2108256E-1,-2.5353495E-3,5.8115995E-1,5.1941853E-2,-3.201613E-2,-2.0036014E-2,-8.3595717E-1,-5.4254186E-1,-1.7409794E-2,2.1627147E-1,-2.752305E-1,1.8082306E-2,1.5687142E-2,3.2060817E-2,2.0238385E-2,-1.03634205E-2,2.993905E-1,2.9486088E-2,2.1010906E-2,3.7096098E-2,-9.042635E-3,7.0026154E-3,-4.9630795E-2,-5.763566E-1,-4.1753572E-1,-4.4779513E-2,3.3775095E-2,1.0463758E-1,-2.9473698E-1,-1.3227145E-3,-9.679861E-2,1.2043929E-2,9.669306E-3,2.173765E-2,-3.5810027E-2,-1.907224E-2,-3.120798E-2,-1.2592768E-2,2.60082E-1,-5.9526663E-2,-2.6933527E-1,-2.8782688E-2,1.5058137E-3,-1.07253995E-2,2.7197315E-3,2.2430189E-2,-1.2887876E-3,-5.1082643E-3,-2.9048637E-1,-6.765879E-5,-4.0616465E-1,-2.4191974E-1,-1.54883545E-2,-3.210781E-2,-4.225039E-3,-1.55930165E-2],"categories":[],"categories_nodes":[],"categories_segments":[],"categories_sizes":[],"default_left":[0,0,0,0,0,0,0,0,0,0,0,0,0,0,0,0,0,0,0,0,0,0,0,0,0,0,0,0,0,0,0,0,0,0,0,0,0,0,0,0,0,0,0,0,0,0,0,0,0,0,0,0,0,0,0,0,0,0,0,0,0,0,0,0,0,0,0,0,0,0,0,0,0,0,0,0,0,0,0],"id":3,"left_children":[1,3,5,7,9,11,13,15,17,19,21,23,25,-1,-1,27,29,-1,-1,31,33,35,37,39,-1,41,-1,-1,43,45,47,-1,49,51,53,-1,-1,-1,-1,55,-1,-1,-1,-1,-1,-1,57,59,-1,-1,61,63,-1,65,-1,-1,-1,-1,-1,-1,-1,67,69,71,-1,-1,-1,-1,-1,-1,-1,73,-1,75,77,-1,-1,-1,-1],"loss_changes":[8.3649666E1,2.2384377E1,1.290308E1,9.402309E0,5.4589887E0,3.307598E0,7.015991E-1,3.340435E0,2.978773E0,2.8328273E0,5.301504E-1,1.5503294E0,4.9087143E-1,0E0,0E0,1.5366019E0,8.762703E-1,0E0,0E0,1.7362053E0,1.4324331E0,1.5057468E-1,1.1120224E0,2.554326E-1,0E0,8.1793785E-2,0E0,0E0,2.500418E-1,6.5324783E-1,3.8871717E-1,0E0,1.1612972E0,4.6378374E-1,5.0055194E-1,0E0,0E0,0E0,0E0,1.2783825E-1,0E0,0E0,0E0,0E0,0E0,0E0,4.9590588E-2,3.4092426E-1,0E0,0E0,6.024054E-1,3.657503E-1,0E0,1.7233571E-1,0E0,0E0,0E0,0E0,0E0,0E0,0E0,3.4450632E-1,1.2010105E-2,4.646659E-1,0E0,0E0,0E0,0E0,0E0,0E0,0E0,3.2871675E-1,0E0,2.9842496E-1,3.3943915E-1,0E0,0E0,0E0,0E0],"parents":[2147483647,0,0,1,1,2,2,3,3,4,4,5,5,6,6,7,7,8,8,9,9,10,10,11,11,12,12,15,15,16,16,19,19,20,20,21,21,22,22,23,23,25,25,28,28,29,29,30,30,32,32,33,33,34,34,39,39,46,46,47,47,50,50,51,51,53,53,61,61,62,62,63,63,71,71,73,73,74,74],"right_children":[2,4,6,8,10,12,14,16,18,20,22,24,26,-1,-1,28,30,-1,-1,32,34,36,38,40,-1,42,-1,-1,44,46,48,-1,50,52,54,-1,-1,-1,-1,56,-1,-1,-1,-1,-1,-1,58,60,-1,-1,62,64,-1,66,-1,-1,-1,-1,-1,-1,-1,68,70,72,-1,-1,-1,-1,-1,-1,-1,74,-1,76,78,-1,-1,-1,-1],"split_conditions":[5.601898E-1,-5.709805E-1,1.502262E0,1.2493031E0,7.3494464E-1,-2.9377213E-1,-2.9975346E-1,-2.798043E-1,-1.1572683E0,-7.3671645E-1,-3.0372196E-1,-2.0365228E-1,8.3781636E-1,5.8108225E-2,9.139041E-2,-8.458029E-1,-7.4326974E-1,4.145455E-2,-1.2359721E-2,-2.6276475E-1,1.9997908E-1,-1.3054715E-1,-2.275481E-2,1.052629E0,-2.5353495E-3,8.0963105E-1,5.1941853E-2,-3.201613E-2,-7.3671645E-1,9.40688E-1,8.3088255E-1,-1.7409794E-2,-9.445351E-2,6.32073E-1,-3.1238067E-1,1.5687142E-2,3.2060817E-2,2.0238385E-2,-1.03634205E-2,-3.4505066E-1,2.9486088E-2,2.1010906E-2,3.7096098E-2,-9.042635E-3,7.0026154E-3,-4.9630795E-2,6.6439766E-1,7.1017206E-1,-4.4779513E-2,3.3775095E-2,-5.5105034E-2,7.5525033E-1,-1.3227145E-3,-5.6134975E-1,1.2043929E-2,9.669306E-3,2.173765E-2,-3.5810027E-2,-1.907224E-2,-3.120798E-2,-1.2592768E-2,-3.78978E-1,3.5003585E-1,3.7815344E-1,-2.8782688E-2,1.5058137E-3,-1.07253995E-2,2.7197315E-3,2.2430189E-2,-1.2887876E-3,-5.1082643E-3,-3.8686904E-1,-6.765879E-5,-4.6755087E-1,-2.759876E-1,-1.54883545E-2,-3.210781E-2,-4.225039E-3,-1.55930165E-2],"split_indices":[0,0,0,6,6,6,3,1,0,1,0,1,6,0,0,0,0,0,0,0,0,3,3,0,0,0,0,0,1,6,3,0,0,6,3,0,0,0,0,3,0,0,0,0,0,0,3,1,0,0,3,3,0,3,0,0,0,0,0,0,0,3,3,3,0,0,0,0,0,0,0,0,0,0,0,0,0,0,0],"split_type":[0,0,0,0,0,0,0,0,0,0,0,0,0,0,0,0,0,0,0,0,0,0,0,0,0,0,0,0,0,0,0,0,0,0,0,0,0,0,0,0,0,0,0,0,0,0,0,0,0,0,0,0,0,0,0,0,0,0,0,0,0,0,0,0,0,0,0,0,0,0,0,0,0,0,0,0,0,0,0],"sum_hessian":[4.02E2,3.05E2,9.7E1,1.28E2,1.77E2,7.1E1,2.6E1,1.17E2,1.1E1,1.49E2,2.8E1,3.9E1,3.2E1,1.5E1,1.1E1,1.9E1,9.8E1,5E0,6E0,3.4E1,1.15E2,1.4E1,1.4E1,3E1,9E0,1.8E1,1.4E1,9E0,1E1,7.7E1,2.1E1,7E0,2.7E1,9.5E1,2E1,7E0,7E0,9E0,5E0,1.6E1,1.4E1,7E0,1.1E1,5E0,5E0,6.1E1,1.6E1,1.6E1,5E0,5E0,2.2E1,8.8E1,7E0,1.3E1,7E0,8E0,8E0,1.1E1,5E0,8E0,8E0,1.1E1,1.1E1,8.1E1,7E0,6E0,7E0,5E0,6E0,6E0,5E0,7.5E1,6E0,2E1,5.5E1,1.3E1,7E0,1.1E1,4.4E1],"tree_param":{"num_deleted":"0","num_feature":"8","num_nodes":"79","size_leaf_vector":"1"}},{"base_weights":[1.0530214E-2,-2.5576332E-1,8.1202066E-1,-5.637516E-1,-4.7252767E-2,1.2097069E0,5.399909E-1,-6.148942E-1,1.9014271E-2,3.4425408E-1,-2.08452E-1,5.114966E-2,8.136881E-2,2.8671473E-1,8.83109E-1,-3.8342285E-1,-4.6405386E-2,8.9027986E-2,4.552149E-1,-4.6211407E-1,-9.36648E-2,1.8969004E-3,3.6963606E-1,3.915956E-2,5.9957493E-2,-1.2988377E-1,-5.0677437E-1,-6.124847E-3,1.8126515E-1,4.4514917E-2,3.439804E-1,-2.4900854E-1,-6.521139E-1,-1.9474585E-1,-5.3733885E-3,9.623414E-3,4.0638617E-1,-1.6605552E-2,-3.6048003E-2,-5.862939E-1,-3.93537E-3,1.6868338E-2,4.540711E-4,2.9468145E-2,2.0045398E-1,-2.2851666E-3,-3.1555265E-1,-3.984767E-2,-2.1102061E-2,-2.9079595E-1,-5.5859838E-2,-9.265084E-2,1.0198409E-1,2.5081381E-2,1.3603585E-2,9.713178E-3,-9.589664E-3,-4.4830445E-2,-2.6603157E-2,-3.9745294E-3,3.1058192E-1,-7.6305964E-3,-2.3273107E-2,-9.29147E-3,-1.8998396E-2,6.048737E-3,-1.706171E-1,-1.2842654E-2,2.4781227E-3,2.235472E-1,-7.7026747E-3,2.1717638E-2,1.0315755E-2,-4.8044245E-3,-1.25674E-2,6.622305E-3,-6.3623427E-3,1.8783703E-2,7.35245E-3],"categories":[],"categories_nodes":[],"categories_segments":[],"categories_sizes":[],"default_left":[0,0,0,0,0,0,0,0,0,0,0,0,0,0,0,0,0,0,0,0,0,0,0,0,0,0,0,0,0,0,0,0,0,0,0,0,0,0,0,0,0,0,0,0,0,0,0,0,0,0,0,0,0,0,0,0,0,0,0,0,0,0,0,0,0,0,0,0,0,0,0,0,0,0,0,0,0,0,0],"id":4,"left_children":[1,3,5,7,9,11,13,15,-1,17,19,-1,-1,21,23,25,-1,27,29,31,33,-1,35,-1,-1,37,39,-1,41,-1,43,45,47,49,51,-1,53,-1,55,57,-1,-1,-1,-1,59,-1,61,-1,-1,63,65,67,69,-1,-1,-1,-1,-1,-1,-1,71,-1,-1,-1,-1,-1,73,-1,75,77,-1,-1,-1,-1,-1,-1,-1,-1,-1],"loss_changes":[8.387292E1,1.891791E1,9.948654E0,5.7251625E0,1.1242336E1,1.5265427E0,4.9610176E0,5.451885E0,0E0,1.4321184E0,3.6254787E0,0E0,0E0,7.4130607E-1,1.13140106E-1,1.7168207E0,0E0,3.3251873E-1,1.1111169E0,1.416729E0,7.8431726E-1,0E0,1.2441659E-1,0E0,0E0,3.0660558E-1,1.2756739E0,0E0,2.5188932E-1,0E0,6.704192E-1,2.6365554E-1,8.326626E-2,5.3069675E-1,4.5920348E-1,0E0,5.002165E-2,0E0,4.3367982E-1,3.71727E-1,0E0,0E0,0E0,0E0,5.6145215E-1,0E0,2.190206E-1,0E0,0E0,9.478378E-2,3.5894424E-1,3.5655105E-1,6.746737E-1,0E0,0E0,0E0,0E0,0E0,0E0,0E0,5.795157E-2,0E0,0E0,0E0,0E0,0E0,3.193146E-2,0E0,2.4597995E-1,1.1202508E-1,0E0,0E0,0E0,0E0,0E0,0E0,0E0,0E0,0E0],"parents":[2147483647,0,0,1,1,2,2,3,3,4,4,5,5,6,6,7,7,9,9,10,10,13,13,14,14,15,15,17,17,18,18,19,19,20,20,22,22,25,25,26,26,28,28,30,30,31,31,32,32,33,33,34,34,36,36,38,38,39,39,44,44,46,46,49,49,50,50,51,51,52,52,60,60,66,66,68,68,69,69],"right_children":[2,4,6,8,10,12,14,16,-1,18,20,-1,-1,22,24,26,-1,28,30,32,34,-1,36,-1,-1,38,40,-1,42,-1,44,46,48,50,52,-1,54,-1,56,58,-1,-1,-1,-1,60,-1,62,-1,-1,64,66,68,70,-1,-1,-1,-1,-1,-1,-1,72,-1,-1,-1,-1,-1,74,-1,76,78,-1,-1,-1,-1,-1,-1,-1,-1,-1],"split_conditions":[5.516173E-1,-5.759671E-1,-3.7570292E-1,1.7636224E0,-6.431524E-1,1.335485E0,1.268621E0,4.113765E-2,1.9014271E-2,-5.525106E-1,7.0046306E-2,5.114966E-2,8.136881E-2,6.511504E-1,1.9099853E0,-8.3998543E-1,-4.6405386E-2,-9.997518E-1,-4.582405E-1,-9.95231E-2,-6.6090253E-4,1.8969004E-3,1.5919615E-1,3.915956E-2,5.9957493E-2,-1.3430531E0,-9.025845E-2,-6.124847E-3,-9.984002E-1,4.4514917E-2,-7.0571303E-1,-2.8655306E-1,1.3991281E-1,-2.2568913E-1,9.6154475E-1,9.623414E-3,5.5181885E-1,-1.6605552E-2,-1.1006645E0,-1.2996942E0,-3.93537E-3,1.6868338E-2,4.540711E-4,2.9468145E-2,-2.7640834E-1,-2.2851666E-3,-3.8375077E-1,-3.984767E-2,-2.1102061E-2,-8.2935935E-1,5.157955E-1,1.03423886E-1,3.9144167E-1,2.5081381E-2,1.3603585E-2,9.713178E-3,-9.589664E-3,-4.4830445E-2,-2.6603157E-2,-3.9745294E-3,-9.10602E-1,-7.6305964E-3,-2.3273107E-2,-9.29147E-3,-1.8998396E-2,6.048737E-3,4.343195E-2,-1.2842654E-2,-1.3323717E-1,1.8277816E-1,-7.7026747E-3,2.1717638E-2,1.0315755E-2,-4.8044245E-3,-1.25674E-2,6.622305E-3,-6.3623427E-3,1.8783703E-2,7.35245E-3],"split_indices":[0,0,7,5,7,2,0,5,0,2,7,0,0,2,0,5,0,7,2,5,0,0,7,0,0,5,5,0,2,0,5,7,2,2,7,0,5,0,5,0,0,0,0,0,2,0,5,0,0,2,7,2,2,0,0,0,0,0,0,0,7,0,0,0,0,0,2,0,5,0,0,0,0,0,0,0,0,0,0],"split_type":[0,0,0,0,0,0,0,0,0,0,0,0,0,0,0,0,0,0,0,0,0,0,0,0,0,0,0,0,0,0,0,0,0,0,0,0,0,0,0,0,0,0,0,0,0,0,0,0,0,0,0,0,0,0,0,0,0,0,0,0,0,0,0,0,0,0,0,0,0,0,0,0,0,0,0,0,0,0,0],"sum_hessian":[3.91E2,2.94E2,9.7E1,1.18E2,1.76E2,3.8E1,5.9E1,1.12E2,6E0,5.1E1,1.25E2,2E1,1.8E1,3.5E1,2.4E1,5.6E1,5.6E1,1.6E1,3.5E1,3.8E1,8.7E1,9E0,2.6E1,1.5E1,9E0,1.9E1,3.7E1,5E0,1.1E1,7E0,2.8E1,1.9E1,1.9E1,4E1,4.7E1,5E0,2.1E1,6E0,1.3E1,3.1E1,6E0,6E0,5E0,1.1E1,1.7E1,5E0,1.4E1,1.4E1,5E0,2.3E1,1.7E1,2.6E1,2.1E1,1.5E1,6E0,5E0,8E0,8E0,2.3E1,5E0,1.2E1,6E0,8E0,8E0,1.5E1,7E0,1E1,1E1,1.6E1,1.4E1,7E0,6E0,6E0,5E0,5E0,8E0,8E0,5E0,9E0],"tree_param":{"num_deleted":"0","num_feature":"8","num_nodes":"79","size_leaf_vector":"1"}},{"base_weights":[2.1351952E-2,-2.3560597E-1,8.766624E-1,-4.937832E-1,-3.785678E-2,5.366164E-1,1.4271446E0,-5.964155E-1,1.608469E-1,-1.1011026E-1,2.7040353E-1,3.774289E-1,4.8850764E-2,6.362693E-2,1.0885059E-1,-1.5508115E-1,-6.4887404E-1,3.9311662E-2,-1.0398792E-1,-1.448649E-1,2.2015505E-2,-7.837989E-3,3.9723322E-1,1.3465956E-1,2.5206154E-2,7.4161537E-4,-1.4551886E-2,-6.8627113E-1,-1.3948216E-2,-1.2894988E-2,2.8659948E-4,-4.7776532E-1,-1.1260414E-1,-8.811493E-3,8.013448E-3,2.5449905E-1,2.8703185E-2,-6.228478E-4,1.4333562E-2,-7.189083E-1,-4.6007875E-1,-1.1237581E-2,-3.7407342E-2,-1.6667236E-1,3.1713195E-2,1.8714909E-2,8.188507E-3,-4.89568E-2,-3.4816347E-2,-1.1168084E-2,-3.4942765E-2,8.047008E-3,-1.961137E-1,-6.7571945E-2,1.9461552E-2,-1.6555041E-1,-3.5296285E-1,5.559437E-2,-1.771141E-1,1.3984671E-2,-2.0427194E-1,-7.978953E-3,-2.6765104E-2,9.251125E-5,5.6414874E-3,-1.1267655E-2,-6.0500335E-3,-7.5630336E-3,6.9343555E-3,-6.339154E-3,-1.3188336E-2],"categories":[],"categories_nodes":[],"categories_segments":[],"categories_sizes":[],"default_left":[0,0,0,0,0,0,0,0,0,0,0,0,0,0,0,0,0,0,0,0,0,0,0,0,0,0,0,0,0,0,0,0,0,0,0,0,0,0,0,0,0,0,0,0,0,0,0,0,0,0,0,0,0,0,0,0,0,0,0,0,0,0,0,0,0,0,0,0,0,0,0],"id":5,"left_children":[1,3,5,7,9,11,13,15,17,19,21,23,-1,-1,-1,25,27,-1,29,31,-1,33,35,37,-1,-1,-1,39,-1,-1,-1,41,43,-1,-1,45,-1,-1,-1,47,49,-1,-1,51,53,-1,-1,-1,-1,-1,-1,-1,55,57,-1,59,61,63,65,67,69,-1,-1,-1,-1,-1,-1,-1,-1,-1,-1],"loss_changes":[8.3722496E1,1.49402275E1,1.5706833E1,8.628582E0,3.7493453E0,2.7256203E0,2.7037506E0,2.446064E0,2.681176E0,2.4515715E0,1.132371E0,6.811209E-1,0E0,0E0,0E0,2.3766217E-1,1.2852592E0,0E0,1.831049E-1,1.3208728E0,0E0,2.7528122E-1,2.4402213E-1,2.0095496E-1,0E0,0E0,0E0,3.2626724E-1,0E0,0E0,0E0,4.568901E-1,9.260378E-1,0E0,0E0,5.627799E-2,0E0,0E0,0E0,5.843849E-1,4.8660755E-1,0E0,0E0,8.1729007E-1,1.0679119E0,0E0,0E0,0E0,0E0,0E0,0E0,0E0,3.2027888E-1,3.60636E-1,0E0,4.7558415E-1,2.5467432E-1,3.2070674E-2,2.4968684E-3,2.3344906E-1,1.4045143E-1,0E0,0E0,0E0,0E0,0E0,0E0,0E0,0E0,0E0,0E0],"parents":[2147483647,0,0,1,1,2,2,3,3,4,4,5,5,6,6,7,7,8,8,9,9,10,10,11,11,15,15,16,16,18,18,19,19,21,21,22,22,23,23,27,27,31,31,32,32,35,35,39,39,40,40,43,43,44,44,52,52,53,53,55,55,56,56,57,57,58,58,59,59,60,60],"right_children":[2,4,6,8,10,12,14,16,18,20,22,24,-1,-1,-1,26,28,-1,30,32,-1,34,36,38,-1,-1,-1,40,-1,-1,-1,42,44,-1,-1,46,-1,-1,-1,48,50,-1,-1,52,54,-1,-1,-1,-1,-1,-1,-1,56,58,-1,60,62,64,66,68,70,-1,-1,-1,-1,-1,-1,-1,-1,-1,-1],"split_conditions":[5.982895E-1,-5.1500744E-1,8.3781636E-1,1.2493031E0,7.3494464E-1,1.3949664E0,2.1505613E0,-3.966438E-1,-1.7510822E0,1.6188546E0,-7.0211226E-1,5.7441324E-1,4.8850764E-2,6.362693E-2,1.0885059E-1,-4.58601E-1,3.6651087E-1,3.9311662E-2,-4.4772997E-1,-9.1409755E-1,2.2015505E-2,-1.7423886E-1,-3.8928145E-1,-9.110022E-1,2.5206154E-2,7.4161537E-4,-1.4551886E-2,-6.843833E-1,-1.3948216E-2,-1.2894988E-2,2.8659948E-4,-8.8028766E-2,2.678249E-1,-8.811493E-3,8.013448E-3,1.0435597E0,2.8703185E-2,-6.228478E-4,1.4333562E-2,4.263296E-1,-6.391678E-1,-1.1237581E-2,-3.7407342E-2,-1.939719E0,3.2411382E-1,1.8714909E-2,8.188507E-3,-4.89568E-2,-3.4816347E-2,-1.1168084E-2,-3.4942765E-2,8.047008E-3,5.292013E-1,-4.4012022E-1,1.9461552E-2,-8.093619E-1,-4.3068376E-1,-6.020987E-1,-4.9951547E-1,-3.7815532E-1,-5.129562E-1,-7.978953E-3,-2.6765104E-2,9.251125E-5,5.6414874E-3,-1.1267655E-2,-6.0500335E-3,-7.5630336E-3,6.9343555E-3,-6.339154E-3,-1.3188336E-2],"split_indices":[0,0,6,6,6,0,2,6,2,4,4,2,0,0,0,4,4,0,4,4,0,0,2,6,0,0,0,0,0,0,0,6,2,0,0,6,0,0,0,6,0,0,0,6,4,0,0,0,0,0,0,0,6,4,0,2,0,4,6,4,4,0,0,0,0,0,0,0,0,0,0],"split_type":[0,0,0,0,0,0,0,0,0,0,0,0,0,0,0,0,0,0,0,0,0,0,0,0,0,0,0,0,0,0,0,0,0,0,0,0,0,0,0,0,0,0,0,0,0,0,0,0,0,0,0,0,0,0,0,0,0,0,0,0,0,0,0,0,0,0,0,0,0,0,0],"sum_hessian":[3.79E2,2.92E2,8.7E1,1.26E2,1.66E2,5.5E1,3.2E1,1.09E2,1.7E1,1.35E2,3.1E1,3.9E1,1.6E1,2.3E1,9E0,1.2E1,9.7E1,5E0,1.2E1,1.27E2,8E0,1E1,2.1E1,1E1,2.9E1,5E0,7E0,8.8E1,9E0,5E0,7E0,1E1,1.17E2,5E0,5E0,1.1E1,1E1,5E0,5E0,7.5E1,1.3E1,5E0,5E0,8.5E1,3.2E1,5E0,6E0,2.4E1,5.1E1,6E0,7E0,7E0,7.8E1,2.5E1,7E0,6.7E1,1.1E1,1.2E1,1.3E1,1.2E1,5.5E1,5E0,6E0,6E0,6E0,8E0,5E0,5E0,7E0,1.6E1,3.9E1],"tree_param":{"num_deleted":"0","num_feature":"8","num_nodes":"71","size_leaf_vector":"1"}},{"base_weights":[-3.4576394E-2,-2.6368213E-1,6.6264707E-1,-5.4840016E-1,-5.900795E-2,3.6620796E-1,1.1254498E0,-5.9121376E-1,1.3296913E-2,1.6060188E-1,-2.0555232E-1,5.0613564E-1,1.5006371E-1,8.8257754E-1,8.363513E-2,-3.2596892E-1,-4.2255837E-2,-6.9532106E-3,3.4359995E-1,1.4302449E-1,-2.8609976E-1,4.065928E-1,3.862071E-2,2.619771E-1,-6.692159E-3,5.6533013E-2,2.9369874E-2,-1.631127E-1,-4.214275E-1,7.342194E-2,-1.7077083E-2,8.300153E-3,3.9974886E-1,1.9945063E-2,-3.0974766E-2,-2.4469493E-1,-3.154638E-2,4.8156172E-1,2.945806E-1,7.0644566E-3,1.7703153E-2,-2.8574903E-2,-8.581451E-4,-4.7297522E-1,-2.9407892E-1,-9.949975E-3,1.7341346E-1,3.4870792E-2,3.1132045E-1,-1.2776203E-2,8.0020465E-3,-2.9207796E-1,1.9376231E-2,1.7661758E-2,3.3304006E-2,1.9137235E-2,9.930542E-3,9.638114E-3,-1.1110304E-2,-1.6106438E-2,-2.874608E-2,-9.79779E-3,-2.014462E-2,2.6683328E-1,-1.3009728E-3,1.8306218E-1,2.6703525E-2,-1.778761E-1,-3.83567E-1,1.7596621E-2,9.130959E-3,4.5152023E-3,1.6007585E-2,-2.6870546E-1,-6.457581E-2,-4.7635064E-3,-4.260883E-1,-9.07432E-3,-1.9763546E-2,1.1790497E-3,-6.563477E-3,-3.5387325E-1,-3.0922692E-2,-8.057445E-3,-2.2280404E-2],"categories":[],"categories_nodes":[],"categories_segments":[],"categories_sizes":[],"default_left":[0,0,0,0,0,0,0,0,0,0,0,0,0,0,0,0,0,0,0,0,0,0,0,0,0,0,0,0,0,0,0,0,0,0,0,0,0,0,0,0,0,0,0,0,0,0,0,0,0,0,0,0,0,0,0,0,0,0,0,0,0,0,0,0,0,0,0,0,0,0,0,0,0,0,0,0,0,0,0,0,0,0,0,0,0],"id":6,"left_children":[1,3,5,7,9,11,13,15,-1,17,19,21,23,25,-1,27,-1,29,31,33,35,37,-1,39,-1,-1,-1,41,43,45,-1,-1,47,-1,49,51,-1,53,55,-1,-1,-1,57,59,61,-1,63,-1,65,-1,-1,67,-1,-1,-1,-1,-1,-1,-1,-1,-1,-1,-1,69,-1,71,-1,73,75,-1,-1,-1,-1,77,79,-1,81,-1,-1,-1,-1,83,-1,-1,-1],"loss_changes":[6.1993294E1,1.6983776E1,1.2758362E1,4.256565E0,5.536234E0,1.7387218E0,2.090065E0,4.971756E0,0E0,2.118085E0,2.9328465E0,3.9551258E-1,7.885588E-1,6.5873337E-1,0E0,6.6192293E-1,0E0,9.1633964E-1,2.99994E-1,7.6317453E-1,8.41547E-1,7.647467E-2,0E0,9.721339E-2,0E0,0E0,0E0,1.0828936E0,5.1279545E-2,7.8874964E-1,0E0,0E0,3.0887008E-1,0E0,4.5134604E-1,2.2113395E0,0E0,7.9722166E-2,1.3643861E-2,0E0,0E0,0E0,5.2107865E-1,5.028248E-3,2.4853826E-2,0E0,4.1080105E-1,0E0,3.467865E-1,0E0,0E0,6.631484E-1,0E0,0E0,0E0,0E0,0E0,0E0,0E0,0E0,0E0,0E0,0E0,2.4741173E-2,0E0,1.1569697E-1,0E0,3.2225084E-1,4.44633E-1,0E0,0E0,0E0,0E0,1.070739E-1,7.610504E-2,0E0,1.14453316E-1,0E0,0E0,0E0,0E0,1.7885923E-1,0E0,0E0,0E0],"parents":[2147483647,0,0,1,1,2,2,3,3,4,4,5,5,6,6,7,7,9,9,10,10,11,11,12,12,13,13,15,15,17,17,18,18,19,19,20,20,21,21,23,23,27,27,28,28,29,29,32,32,34,34,35,35,37,37,38,38,42,42,43,43,44,44,46,46,48,48,51,51,63,63,65,65,67,67,68,68,73,73,74,74,76,76,81,81],"right_children":[2,4,6,8,10,12,14,16,-1,18,20,22,24,26,-1,28,-1,30,32,34,36,38,-1,40,-1,-1,-1,42,44,46,-1,-1,48,-1,50,52,-1,54,56,-1,-1,-1,58,60,62,-1,64,-1,66,-1,-1,68,-1,-1,-1,-1,-1,-1,-1,-1,-1,-1,-1,70,-1,72,-1,74,76,-1,-1,-1,-1,78,80,-1,82,-1,-1,-1,-1,84,-1,-1,-1],"split_conditions":[4.8768818E-1,-5.709805E-1,1.268621E0,1.7636224E0,-4.250883E-1,2.1707244E-1,2.0141432E0,-2.6658863E-1,1.3296913E-2,7.863241E-1,-8.128685E-1,9.3862814E-1,-7.3671645E-1,1.0723688E-1,8.363513E-2,-8.3998543E-1,-4.2255837E-2,6.6439766E-1,-3.5711765E-1,5.3705577E-2,7.870053E-1,-3.4752777E-1,3.862071E-2,8.1299275E-1,-6.692159E-3,5.6533013E-2,2.9369874E-2,-1.3038931E0,-7.9397607E-1,-6.3872063E-1,-1.7077083E-2,8.300153E-3,-2.682556E-1,1.9945063E-2,-1.5743887E0,5.400413E-1,-3.154638E-2,8.0963105E-1,8.1299275E-1,7.0644566E-3,1.7703153E-2,-2.8574903E-2,2.8347792E-2,-3.7010333E-1,-6.623638E-1,-9.949975E-3,-6.617434E-1,3.4870792E-2,-1.0062959E-1,-1.2776203E-2,8.0020465E-3,-5.1348224E-2,1.9376231E-2,1.7661758E-2,3.3304006E-2,1.9137235E-2,9.930542E-3,9.638114E-3,-1.1110304E-2,-1.6106438E-2,-2.874608E-2,-9.79779E-3,-2.014462E-2,-8.3354765E-1,-1.3009728E-3,6.875908E-2,2.6703525E-2,-1.3099349E-2,-3.7545213E-1,1.7596621E-2,9.130959E-3,4.5152023E-3,1.6007585E-2,2.904285E-1,-2.0365228E-1,-4.7635064E-3,2.3063107E-1,-9.07432E-3,-1.9763546E-2,1.1790497E-3,-6.563477E-3,-4.9727896E-1,-3.0922692E-2,-8.057445E-3,-2.2280404E-2],"split_indices":[0,0,0,5,5,5,0,5,0,1,1,1,1,5,0,5,0,3,0,5,3,3,0,0,0,0,0,5,0,3,0,0,0,0,1,3,0,0,0,0,0,0,3,3,0,0,5,0,3,0,0,1,0,0,0,0,0,0,0,0,0,0,0,5,0,0,0,0,5,0,0,0,0,5,1,0,5,0,0,0,0,3,0,0,0],"split_type":[0,0,0,0,0,0,0,0,0,0,0,0,0,0,0,0,0,0,0,0,0,0,0,0,0,0,0,0,0,0,0,0,0,0,0,0,0,0,0,0,0,0,0,0,0,0,0,0,0,0,0,0,0,0,0,0,0,0,0,0,0,0,0,0,0,0,0,0,0,0,0,0,0,0,0,0,0,0,0,0,0,0,0,0,0],"sum_hessian":[3.86E2,2.91E2,9.5E1,1.21E2,1.7E2,5.9E1,3.6E1,1.15E2,6E0,6.8E1,1.02E2,3.5E1,2.4E1,2.4E1,1.2E1,4.6E1,6.9E1,3.6E1,3.2E1,1.9E1,8.3E1,2.5E1,1E1,1.7E1,7E0,1.6E1,8E0,1.8E1,2.8E1,2.9E1,7E0,8E0,2.4E1,8E0,1.1E1,7.4E1,9E0,1.3E1,1.2E1,6E0,1.1E1,5E0,1.3E1,1.8E1,1E1,8E0,2.1E1,5E0,1.9E1,5E0,6E0,6.9E1,5E0,7E0,6E0,7E0,5E0,7E0,6E0,5E0,1.3E1,5E0,5E0,1.4E1,7E0,1.2E1,7E0,3.2E1,3.7E1,8E0,6E0,7E0,5E0,1.7E1,1.5E1,5E0,3.2E1,9E0,8E0,6E0,9E0,2.3E1,9E0,5E0,1.8E1],"tree_param":{"num_deleted":"0","num_feature":"8","num_nodes":"85","size_leaf_vector":"1"}},{"base_weights":[4.175226E-3,-1.5889731E-1,8.395441E-1,-1.1512752E-2,-3.8044167E-1,6.69533E-1,8.153292E-2,-9.44487E-2,3.1444338E-1,-9.101673E-2,-6.0305005E-1,7.4951494E-1,2.0473057E-3,9.489437E-2,-1.8824571E-1,2.2997253E-1,4.2700153E-2,-3.46299E-1,2.0398502E-1,-3.9375353E-1,-6.9982326E-1,6.3662624E-1,5.1563088E-2,-2.05699E-1,1.9522151E-1,-2.1855791E-1,1.5569124E-2,1.1255251E-1,4.064502E-1,-4.5476907E-1,-2.2383897E-1,3.078272E-1,-5.2259555E-3,-2.9354809E-2,-1.9242729E-1,-2.4455428E-2,-4.143282E-2,4.662728E-2,4.0816864E-1,-2.610433E-2,-3.6759287E-4,6.9871254E-2,3.366865E-1,-3.7016913E-1,-1.01787545E-1,1.7543684E-1,-5.268185E-3,3.584151E-2,8.141387E-3,-1.6912894E-2,-2.9866677E-2,-9.542396E-2,-2.186248E-2,2.8276453E-2,1.9335598E-1,-8.873229E-4,-1.7559687E-2,1.08825145E-2,3.19356E-2,-7.419638E-3,1.6723913E-1,2.3630387E-1,2.3434715E-2,-4.800572E-3,-4.2151153E-1,3.7213669E-3,-2.3584583E-1,1.639611E-2,2.7812847E-3,-1.3094347E-3,-8.406404E-3,5.9820353E-3,1.5319641E-2,-1.6349279E-3,1.796516E-2,1.65327E-2,7.527194E-3,-2.4841359E-2,-1.1870928E-2,-1.0438014E-2,6.0374293E-2,-2.1275979E-2,-1.6143265E-1,-1.1864679E-1,1.9086671E-1,-4.151327E-3,-1.2883057E-2,-1.4659959E-3,-1.1468216E-2,6.6688247E-3,1.4702002E-2],"categories":[],"categories_nodes":[],"categories_segments":[],"categories_sizes":[],"default_left":[0,0,0,0,0,0,0,0,0,0,0,0,0,0,0,0,0,0,0,0,0,0,0,0,0,0,0,0,0,0,0,0,0,0,0,0,0,0,0,0,0,0,0,0,0,0,0,0,0,0,0,0,0,0,0,0,0,0,0,0,0,0,0,0,0,0,0,0,0,0,0,0,0,0,0,0,0,0,0,0,0,0,0,0,0,0,0,0,0,0,0],"id":7,"left_children":[1,3,5,7,9,11,-1,13,15,17,19,21,-1,23,25,27,-1,29,31,33,35,37,-1,39,41,43,-1,45,47,49,51,53,-1,-1,55,-1,-1,-1,57,-1,-1,59,61,63,65,67,-1,-1,-1,-1,-1,69,-1,-1,71,-1,-1,-1,-1,-1,73,75,-1,-1,77,79,81,-1,-1,-1,-1,-1,-1,-1,-1,-1,-1,-1,-1,-1,83,-1,85,87,89,-1,-1,-1,-1,-1,-1],"loss_changes":[5.421502E1,1.086881E1,5.9629097E0,5.463428E0,8.5140915E0,2.6542797E0,0E0,2.8771935E0,1.3969707E0,4.513854E0,1.2435131E0,3.5830307E-1,0E0,1.6686714E0,1.5952821E0,7.002455E-1,0E0,3.2326913E-1,8.956691E-1,6.0395384E-1,2.7111435E-1,1.1409855E0,0E0,7.3362815E-1,7.035147E-1,1.7680984E0,0E0,3.1662962E-1,7.745583E-1,3.5767317E-2,3.331579E-1,3.8550615E-1,0E0,0E0,2.569838E-1,0E0,0E0,0E0,4.8932147E-1,0E0,0E0,4.7800526E-1,6.294012E-2,6.045289E-1,8.3539397E-1,2.5551736E-1,0E0,0E0,0E0,0E0,0E0,4.064273E-2,0E0,0E0,7.625872E-2,0E0,0E0,0E0,0E0,0E0,5.0119364E-1,2.769512E-2,0E0,0E0,1.0259342E-1,3.8053957E-1,2.2304773E-1,0E0,0E0,0E0,0E0,0E0,0E0,0E0,0E0,0E0,0E0,0E0,0E0,0E0,6.533899E-1,0E0,9.883952E-2,9.179963E-2,5.186397E-2,0E0,0E0,0E0,0E0,0E0,0E0],"parents":[2147483647,0,0,1,1,2,2,3,3,4,4,5,5,7,7,8,8,9,9,10,10,11,11,13,13,14,14,15,15,17,17,18,18,19,19,20,20,21,21,23,23,24,24,25,25,27,27,28,28,29,29,30,30,31,31,34,34,38,38,41,41,42,42,43,43,44,44,45,45,51,51,54,54,60,60,61,61,64,64,65,65,66,66,80,80,82,82,83,83,84,84],"right_children":[2,4,6,8,10,12,-1,14,16,18,20,22,-1,24,26,28,-1,30,32,34,36,38,-1,40,42,44,-1,46,48,50,52,54,-1,-1,56,-1,-1,-1,58,-1,-1,60,62,64,66,68,-1,-1,-1,-1,-1,70,-1,-1,72,-1,-1,-1,-1,-1,74,76,-1,-1,78,80,82,-1,-1,-1,-1,-1,-1,-1,-1,-1,-1,-1,-1,-1,84,-1,86,88,90,-1,-1,-1,-1,-1,-1],"split_conditions":[1.0423859E0,5.3705577E-2,2.1505613E0,4.258661E-1,-1.2750025E-1,5.629396E-1,8.153292E-2,-8.3354765E-1,2.4255183E-2,1.1843607E-1,2.532599E-1,1.0909321E0,2.0473057E-3,-6.3145053E-1,1.4731827E0,7.863241E-1,4.2700153E-2,-4.550151E-2,-5.844124E-1,-4.286049E-2,2.357251E-1,-5.0826037E-1,5.1563088E-2,-1.2313671E0,2.4803802E-2,-5.3504324E-1,1.5569124E-2,8.544731E-1,5.0375974E-1,-4.4446865E-1,7.709935E-1,-1.7266928E0,-5.2259555E-3,-2.9354809E-2,3.2517233E-1,-2.4455428E-2,-4.143282E-2,4.662728E-2,-3.0097094E-1,-2.610433E-2,-3.6759287E-4,-1.1181485E-1,-5.525106E-1,-1.0413246E0,-3.7728775E-1,-5.1348224E-2,-5.268185E-3,3.584151E-2,8.141387E-3,-1.6912894E-2,-2.9866677E-2,4.589147E-1,-2.186248E-2,2.8276453E-2,6.511504E-1,-8.873229E-4,-1.7559687E-2,1.08825145E-2,3.19356E-2,-7.419638E-3,-1.1742313E0,-1.1006645E0,2.3434715E-2,-4.800572E-3,5.415346E-1,-7.4885774E-1,-6.8580574E-1,1.639611E-2,2.7812847E-3,-1.3094347E-3,-8.406404E-3,5.9820353E-3,1.5319641E-2,-1.6349279E-3,1.796516E-2,1.65327E-2,7.527194E-3,-2.4841359E-2,-1.1870928E-2,-1.0438014E-2,5.57868E-1,-2.1275979E-2,1.0095583E-1,-1.6149705E-2,1.03423886E-1,-4.151327E-3,-1.2883057E-2,-1.4659959E-3,-1.1468216E-2,6.6688247E-3,1.4702002E-2],"split_indices":[2,5,2,2,1,5,0,5,5,2,1,1,0,4,4,1,0,4,1,2,5,1,0,2,1,2,0,2,2,4,5,1,0,0,2,0,0,0,4,0,0,4,2,1,5,1,0,0,0,0,0,4,0,0,2,0,0,0,0,0,5,5,0,0,4,4,4,0,0,0,0,0,0,0,0,0,0,0,0,0,1,0,1,4,2,0,0,0,0,0,0],"split_type":[0,0,0,0,0,0,0,0,0,0,0,0,0,0,0,0,0,0,0,0,0,0,0,0,0,0,0,0,0,0,0,0,0,0,0,0,0,0,0,0,0,0,0,0,0,0,0,0,0,0,0,0,0,0,0,0,0,0,0,0,0,0,0,0,0,0,0,0,0,0,0,0,0,0,0,0,0,0,0,0,0,0,0,0,0,0,0,0,0,0,0],"sum_hessian":[3.96E2,3.32E2,6.4E1,2E2,1.32E2,5.2E1,1.2E1,1.6E2,4E1,5.8E1,7.4E1,4.6E1,6E0,5.3E1,1.07E2,3.5E1,5E0,3.1E1,2.7E1,2.5E1,4.9E1,3.1E1,1.5E1,1.3E1,4E1,1.01E2,6E0,2.2E1,1.3E1,1.5E1,1.6E1,2E1,7E0,1.4E1,1.1E1,9E0,4E1,1.5E1,1.6E1,5E0,8E0,2.2E1,1.8E1,4.3E1,5.8E1,1.7E1,5E0,6E0,7E0,7E0,8E0,1E1,6E0,6E0,1.4E1,5E0,6E0,8E0,8E0,7E0,1.5E1,1E1,8E0,7E0,3.6E1,3.3E1,2.5E1,8E0,9E0,5E0,5E0,8E0,6E0,7E0,8E0,5E0,5E0,3.1E1,5E0,7E0,2.6E1,7E0,1.8E1,1.1E1,1.5E1,9E0,9E0,6E0,5E0,9E0,6E0],"tree_param":{"num_deleted":"0","num_feature":"8","num_nodes":"91","size_leaf_vector":"1"}},{"base_weights":[2.6631042E-2,-1.9313301E-1,6.530213E-1,-4.637897E-1,-1.8261755E-2,4.5058405E-1,1.2837331E0,-5.093396E-1,2.4070043E-2,2.7866164E-1,-1.484699E-1,4.4200815E-2,3.4130618E-1,9.738167E-1,8.399942E-2,-1.5543756E-1,-6.372854E-1,9.470225E-2,4.591135E-1,7.058136E-2,-2.0507053E-1,2.3686942E-1,6.4578754E-1,6.255223E-2,3.37763E-2,-2.9849276E-1,-5.6905992E-2,-6.8373233E-1,-1.9375885E-2,1.8236574E-2,1.5749529E-2,3.2375714E-1,4.440701E-2,-7.89576E-3,1.783134E-1,-4.0905645E-1,-1.09061204E-1,-5.4297685E-3,2.7903512E-1,1.8246844E-2,4.284943E-2,-2.2737924E-2,-8.928675E-3,-1.7064204E-2,5.4452863E-2,-4.914466E-1,-7.252522E-1,-5.140941E-3,1.0905406E-1,4.3923146E-1,-2.1178378E-3,-6.161045E-3,4.696918E-3,1.4419698E-2,3.7357463E-3,-4.778693E-1,-5.8235764E-3,-1.6513184E-1,1.6636272E-1,3.4367812E-1,8.878779E-2,1.2747047E-2,-3.7938098E-3,-3.187382E-2,-1.5110497E-2,-2.1538412E-2,-4.1781593E-2,-8.468737E-6,1.0389868E-2,1.1462388E-2,3.1005997E-2,-3.1918824E-2,-2.003274E-2,-2.5875604E-1,-2.5617043E-2,1.933544E-2,-4.0794797E-3,3.8085085E-1,8.9870645E-3,-3.1595938E-3,1.116136E-2,-1.8524222E-1,-1.6714023E-2,-1.0007091E-1,7.1471244E-2,1.7612822E-2,2.942087E-2,-1.2341455E-2,-5.1503456E-3,1.4729769E-3,-1.10147E-2,8.701653E-3,-1.4246216E-3],"categories":[],"categories_nodes":[],"categories_segments":[],"categories_sizes":[],"default_left":[0,0,0,0,0,0,0,0,0,0,0,0,0,0,0,0,0,0,0,0,0,0,0,0,0,0,0,0,0,0,0,0,0,0,0,0,0,0,0,0,0,0,0,0,0,0,0,0,0,0,0,0,0,0,0,0,0,0,0,0,0,0,0,0,0,0,0,0,0,0,0,0,0,0,0,0,0,0,0,0,0,0,0,0,0,0,0,0,0,0,0,0,0],"id":8,"left_children":[1,3,5,7,9,11,13,15,-1,17,19,-1,21,23,-1,25,27,29,31,33,35,37,39,-1,-1,41,43,45,-1,47,-1,49,-1,51,53,55,57,-1,59,-1,-1,-1,-1,-1,61,63,65,-1,67,69,-1,-1,-1,-1,-1,71,-1,73,75,77,79,-1,-1,-1,-1,-1,-1,-1,-1,-1,-1,-1,-1,81,83,-1,-1,85,-1,-1,-1,87,-1,89,91,-1,-1,-1,-1,-1,-1,-1,-1],"loss_changes":[5.353745E1,1.3622591E1,1.2317207E1,4.838745E0,6.845857E0,2.6715708E0,2.2865677E-1,4.791212E0,0E0,1.7490954E0,1.5394821E0,0E0,1.7867742E0,3.988743E-2,0E0,4.0587753E-1,8.196945E-1,3.9923766E-1,9.8545647E-1,2.2122495E-1,1.8746738E0,6.904626E-1,3.449421E-1,0E0,0E0,1.1750412E-1,5.4643255E-1,1.7848396E-1,0E0,2.214179E-1,0E0,8.943212E-1,0E0,1.6183035E-1,8.187935E-2,5.9880304E-1,1.077609E0,0E0,4.8600817E-1,0E0,0E0,0E0,0E0,0E0,3.165742E-1,1.1523056E-1,1.9233704E-1,0E0,1.0228051E-1,3.2833695E-1,0E0,0E0,0E0,0E0,0E0,7.639551E-2,0E0,7.3790336E-1,5.487386E-1,1.4793348E-1,2.0754918E-1,0E0,0E0,0E0,0E0,0E0,0E0,0E0,0E0,0E0,0E0,0E0,0E0,4.9722195E-2,1.8063857E-1,0E0,0E0,6.91731E-2,0E0,0E0,0E0,3.0702472E-2,0E0,1.7940784E-1,9.5054865E-2,0E0,0E0,0E0,0E0,0E0,0E0,0E0,0E0],"parents":[2147483647,0,0,1,1,2,2,3,3,4,4,5,5,6,6,7,7,9,9,10,10,12,12,13,13,15,15,16,16,17,17,18,18,19,19,20,20,21,21,22,22,25,25,26,26,27,27,29,29,31,31,33,33,34,34,35,35,36,36,38,38,44,44,45,45,46,46,48,48,49,49,55,55,57,57,58,58,59,59,60,60,73,73,74,74,77,77,81,81,83,83,84,84],"right_children":[2,4,6,8,10,12,14,16,-1,18,20,-1,22,24,-1,26,28,30,32,34,36,38,40,-1,-1,42,44,46,-1,48,-1,50,-1,52,54,56,58,-1,60,-1,-1,-1,-1,-1,62,64,66,-1,68,70,-1,-1,-1,-1,-1,72,-1,74,76,78,80,-1,-1,-1,-1,-1,-1,-1,-1,-1,-1,-1,-1,82,84,-1,-1,86,-1,-1,-1,88,-1,90,92,-1,-1,-1,-1,-1,-1,-1,-1],"split_conditions":[4.9211448E-1,-6.181569E-1,1.8009528E0,1.7636224E0,-6.431524E-1,-5.540026E-1,2.02984E0,-6.420848E-1,2.4070043E-2,-9.10602E-1,-4.5981488E-1,4.4200815E-2,1.3261067E0,-5.540026E-1,8.399942E-2,-9.10602E-1,-1.9103538E-2,9.576507E-2,-4.7937486E-1,-6.62709E-2,7.0046306E-2,1.7401557E-1,-8.2478754E-2,6.255223E-2,3.37763E-2,-9.511375E-1,-1.2668551E0,-1.23375446E-1,-1.9375885E-2,-1.0889016E0,1.5749529E-2,-7.0571303E-1,4.440701E-2,-7.6387995E-1,1.2758957E-1,2.0934081E-1,1.3181441E0,-5.4297685E-3,5.7099223E-1,1.8246844E-2,4.284943E-2,-2.2737924E-2,-8.928675E-3,-1.7064204E-2,-8.1235355E-1,-9.10602E-1,-1.3152983E0,-5.140941E-3,-3.1935406E-1,-1.0393996E0,-2.1178378E-3,-6.161045E-3,4.696918E-3,1.4419698E-2,3.7357463E-3,-3.0120447E-1,-5.8235764E-3,1.5186812E-1,1.8277816E-1,1.151016E0,8.622423E-1,1.2747047E-2,-3.7938098E-3,-3.187382E-2,-1.5110497E-2,-2.1538412E-2,-4.1781593E-2,-8.468737E-6,1.0389868E-2,1.1462388E-2,3.1005997E-2,-3.1918824E-2,-2.003274E-2,1.9438253E-1,5.008398E-1,1.933544E-2,-4.0794797E-3,9.7446847E-1,8.9870645E-3,-3.1595938E-3,1.116136E-2,-6.6090253E-4,-1.6714023E-2,2.9455045E-1,7.45464E-1,1.7612822E-2,2.942087E-2,-1.2341455E-2,-5.1503456E-3,1.4729769E-3,-1.10147E-2,8.701653E-3,-1.4246216E-3],"split_indices":[0,0,0,5,7,7,2,5,0,7,5,0,0,7,0,7,7,0,5,0,7,2,5,0,0,0,5,5,0,7,0,5,0,5,0,2,7,0,5,0,0,0,0,0,0,7,2,0,0,5,0,0,0,0,0,2,0,2,0,0,0,0,0,0,0,0,0,0,0,0,0,0,0,5,2,0,0,0,0,0,0,0,0,2,2,0,0,0,0,0,0,0,0],"split_type":[0,0,0,0,0,0,0,0,0,0,0,0,0,0,0,0,0,0,0,0,0,0,0,0,0,0,0,0,0,0,0,0,0,0,0,0,0,0,0,0,0,0,0,0,0,0,0,0,0,0,0,0,0,0,0,0,0,0,0,0,0,0,0,0,0,0,0,0,0,0,0,0,0,0,0,0,0,0,0,0,0,0,0,0,0,0,0,0,0,0,0,0,0],"sum_hessian":[3.87E2,2.87E2,1E2,1.12E2,1.75E2,7.7E1,2.3E1,1.07E2,5E0,5.3E1,1.22E2,1.7E1,6E1,1.2E1,1.1E1,2.9E1,7.8E1,2.7E1,2.6E1,2.5E1,9.7E1,4.6E1,1.4E1,7E0,5E0,1.1E1,1.8E1,6.6E1,1.2E1,2E1,7E0,2E1,6E0,1.5E1,1E1,3E1,6.7E1,5E0,4.1E1,5E0,9E0,5E0,6E0,5E0,1.3E1,1.4E1,5.2E1,9E0,1.1E1,1.5E1,5E0,7E0,8E0,5E0,5E0,2.4E1,6E0,5.6E1,1.1E1,3E1,1.1E1,5E0,8E0,9E0,5E0,5E0,4.7E1,5E0,6E0,6E0,9E0,1.1E1,1.3E1,3.3E1,2.3E1,6E0,5E0,2.4E1,6E0,5E0,6E0,1.4E1,1.9E1,1.3E1,1E1,1.9E1,5E0,9E0,5E0,6E0,7E0,5E0,5E0],"tree_param":{"num_deleted":"0","num_feature":"8","num_nodes":"93","size_leaf_vector":"1"}},{"base_weights":[-9.823539E-4,-1.5115228E-1,6.1252874E-1,-2.5781903E-2,-2.88115E-1,7.5487053E-1,-2.0104483E-1,1.2896214E-1,-8.1529506E-2,-1.1264348E-2,-3.7425485E-1,6.154526E-1,7.64985E-2,3.259838E-3,-2.8538156E-2,-2.0635623E-2,2.5728637E-1,-4.5858863E-1,-3.2069024E-2,-2.668184E-1,2.4485292E-1,1.9696755E-2,-4.150148E-1,8.1365544E-1,3.8235813E-1,1.5086514E-1,2.9999876E-2,-1.680622E-2,-3.5661083E-2,1.01517595E-1,-7.7764764E-2,-2.1086039E-2,-1.3996404E-1,2.5398005E-2,1.4354342E-1,-2.85399E-1,-5.055488E-1,5.800138E-1,8.972936E-1,4.7423643E-1,-2.7147243E-3,2.4826847E-2,2.3837292E-1,4.604642E-2,1.7534543E-2,1.6167367E-1,-1.22013055E-1,2.0904387E-3,-1.6341243E-2,1.3597844E-2,2.7104882E-3,-1.3901539E-1,-4.2622197E-1,-3.4464628E-2,-4.269179E-1,3.9165694E-2,1.988993E-2,2.8995534E-2,9.819122E-1,3.2436287E-1,3.199488E-2,7.2593763E-3,-4.698737E-3,5.96956E-3,1.7729782E-2,1.3982686E-1,-6.720131E-2,-3.0964995E-3,2.55954E-2,-3.1651977E-1,-7.1352825E-2,-2.2814696E-1,7.5255563E-3,-2.8085195E-2,-1.0780304E-2,2.6989132E-3,-5.20729E-1,6.395034E-2,3.712055E-2,9.365522E-3,2.510176E-2,1.9543098E-2,-9.489915E-4,-1.03686815E-2,2.4894683E-3,-7.294997E-3,-2.1990782E-2,3.620695E-2,-1.7314123E-1,-2.2839418E-2,-1.2030033E-1,-2.735729E-1,-3.361464E-2,-1.21046435E-2,9.575798E-2,-6.754751E-2,-1.4879085E-2,-8.816488E-4,-1.092049E-2,-1.937483E-2,-8.479708E-3,1.811491E-2,3.2358518E-4,-1.2611856E-3,-6.7728837E-3],"categories":[],"categories_nodes":[],"categories_segments":[],"categories_sizes":[],"default_left":[0,0,0,0,0,0,0,0,0,0,0,0,0,0,0,0,0,0,0,0,0,0,0,0,0,0,0,0,0,0,0,0,0,0,0,0,0,0,0,0,0,0,0,0,0,0,0,0,0,0,0,0,0,0,0,0,0,0,0,0,0,0,0,0,0,0,0,0,0,0,0,0,0,0,0,0,0,0,0,0,0,0,0,0,0,0,0,0,0,0,0,0,0,0,0,0,0,0,0,0,0,0,0,0,0],"id":9,"left_children":[1,3,5,7,9,11,13,15,17,19,21,23,-1,-1,-1,-1,25,27,29,31,33,-1,35,37,39,41,-1,-1,-1,43,45,-1,47,-1,49,51,53,55,57,59,-1,61,63,65,-1,67,69,-1,-1,-1,-1,71,73,-1,75,-1,-1,-1,77,79,-1,-1,-1,-1,-1,81,83,-1,-1,85,87,89,-1,-1,-1,-1,91,-1,-1,-1,-1,-1,-1,-1,-1,-1,-1,93,95,-1,97,99,-1,-1,101,103,-1,-1,-1,-1,-1,-1,-1,-1,-1],"loss_changes":[3.841905E1,5.7448797E0,9.647818E0,1.5287977E0,3.8114414E0,5.228035E0,1.0864251E0,3.1144047E0,2.4097319E0,2.6179516E0,3.7718792E0,2.414688E0,0E0,0E0,0E0,0E0,1.062527E0,2.3507094E-1,7.1599793E-1,2.3318934E-1,3.6484933E-1,0E0,1.2169361E0,8.53405E-2,1.1722064E0,3.139326E-1,0E0,0E0,0E0,3.4193683E-1,9.414688E-1,0E0,3.1247926E-1,0E0,1.3200524E-1,9.71457E-1,3.4103966E-1,5.3013086E-2,1.5407181E-1,1.7954016E-1,0E0,1.6169474E-1,1.4562517E-1,2.749071E-1,0E0,9.364599E-1,7.065933E-1,0E0,0E0,0E0,0E0,6.670957E-1,3.630514E-1,0E0,1.9434738E0,0E0,0E0,0E0,8.101463E-2,1.6226697E-1,0E0,0E0,0E0,0E0,0E0,4.7188276E-1,1.6901226E-1,0E0,0E0,1.6865194E-1,6.6316915E-1,3.4546292E-1,0E0,0E0,0E0,0E0,5.866022E-1,0E0,0E0,0E0,0E0,0E0,0E0,0E0,0E0,0E0,0E0,4.7494268E-1,2.9213166E-1,0E0,1.0847615E-1,4.685235E-2,0E0,0E0,5.1615E-1,3.626191E-2,0E0,0E0,0E0,0E0,0E0,0E0,0E0,0E0,0E0],"parents":[2147483647,0,0,1,1,2,2,3,3,4,4,5,5,6,6,7,7,8,8,9,9,10,10,11,11,16,16,17,17,18,18,19,19,20,20,22,22,23,23,24,24,25,25,29,29,30,30,32,32,34,34,35,35,36,36,37,37,38,38,39,39,41,41,42,42,43,43,45,45,46,46,51,51,52,52,54,54,58,58,59,59,65,65,66,66,69,69,70,70,71,71,76,76,87,87,88,88,90,90,91,91,94,94,95,95],"right_children":[2,4,6,8,10,12,14,16,18,20,22,24,-1,-1,-1,-1,26,28,30,32,34,-1,36,38,40,42,-1,-1,-1,44,46,-1,48,-1,50,52,54,56,58,60,-1,62,64,66,-1,68,70,-1,-1,-1,-1,72,74,-1,76,-1,-1,-1,78,80,-1,-1,-1,-1,-1,82,84,-1,-1,86,88,90,-1,-1,-1,-1,92,-1,-1,-1,-1,-1,-1,-1,-1,-1,-1,94,96,-1,98,100,-1,-1,102,104,-1,-1,-1,-1,-1,-1,-1,-1,-1],"split_conditions":[7.6480436E-1,-1.0753759E-1,4.012283E-1,-8.6752987E-1,-4.3210834E-1,2.0573907E0,5.8831894E-1,-1.2697806E0,-9.984002E-1,7.757654E-2,-1.8257642E0,-8.251136E-3,7.64985E-2,3.259838E-3,-2.8538156E-2,-2.0635623E-2,-4.55088E-1,4.8171598E-1,-4.3210834E-1,-5.109387E-1,2.5699082E-1,1.9696755E-2,2.532599E-1,-4.7937486E-1,-2.0592327E-1,-2.1607947E-1,2.9999876E-2,-1.680622E-2,-3.5661083E-2,9.069531E-2,-7.6268077E-1,-2.1086039E-2,-2.7640834E-1,2.5398005E-2,-1.1174766E0,-1.8233553E-1,-5.6250286E-1,-6.001463E-1,1.0693969E0,1.1994526E0,-2.7147243E-3,-9.972318E-1,-1.1604284E0,-4.582405E-1,1.7534543E-2,7.863241E-1,-5.22605E-1,2.0904387E-3,-1.6341243E-2,1.3597844E-2,2.7104882E-3,-4.3702194E-1,8.004869E-2,-3.4464628E-2,-3.7610862E-1,3.9165694E-2,1.988993E-2,2.8995534E-2,-2.291002E-1,-4.5012128E-1,3.199488E-2,7.2593763E-3,-4.698737E-3,5.96956E-3,1.7729782E-2,-1.6505408E0,-1.3459327E0,-3.0964995E-3,2.55954E-2,3.2941192E-1,-5.026277E-1,-5.758317E-1,7.5255563E-3,-2.8085195E-2,-1.0780304E-2,2.6989132E-3,2.8751073E-3,6.395034E-2,3.712055E-2,9.365522E-3,2.510176E-2,1.9543098E-2,-9.489915E-4,-1.03686815E-2,2.4894683E-3,-7.294997E-3,-2.1990782E-2,-7.7619934E-1,7.1017206E-1,-2.2839418E-2,1.8813972E-1,-9.025845E-2,-3.361464E-2,-1.21046435E-2,-7.119706E-1,-3.3767927E-1,-1.4879085E-2,-8.816488E-4,-1.092049E-2,-1.937483E-2,-8.479708E-3,1.811491E-2,3.2358518E-4,-1.2611856E-3,-6.7728837E-3],"split_indices":[2,5,3,5,1,2,5,1,2,2,2,5,0,0,0,0,2,1,1,2,5,0,1,5,3,3,0,0,0,2,3,0,2,0,1,3,2,5,2,2,0,5,5,2,0,1,2,0,0,0,0,3,2,0,2,0,0,0,5,3,0,0,0,0,0,1,1,0,0,1,5,2,0,0,0,0,5,0,0,0,0,0,0,0,0,0,0,5,1,0,5,5,0,0,5,3,0,0,0,0,0,0,0,0,0],"split_type":[0,0,0,0,0,0,0,0,0,0,0,0,0,0,0,0,0,0,0,0,0,0,0,0,0,0,0,0,0,0,0,0,0,0,0,0,0,0,0,0,0,0,0,0,0,0,0,0,0,0,0,0,0,0,0,0,0,0,0,0,0,0,0,0,0,0,0,0,0,0,0,0,0,0,0,0,0,0,0,0,0,0,0,0,0,0,0,0,0,0,0,0,0,0,0,0,0,0,0,0,0,0,0,0,0],"sum_hessian":[4.15E2,3.34E2,8.1E1,1.75E2,1.59E2,6.9E1,1.2E1,4.6E1,1.29E2,3.8E1,1.21E2,5.8E1,1.1E1,7E0,5E0,9E0,3.7E1,1.4E1,1.15E2,1.9E1,1.9E1,6E0,1.15E2,3E1,2.8E1,2.8E1,9E0,9E0,5E0,2.9E1,8.6E1,9E0,1E1,5E0,1.4E1,4.9E1,6.6E1,1E1,2E1,2.3E1,5E0,1.2E1,1.6E1,2.4E1,5E0,1.3E1,7.3E1,5E0,5E0,6E0,8E0,2.5E1,2.4E1,2.4E1,4.2E1,5E0,5E0,5E0,1.5E1,1.1E1,1.2E1,6E0,6E0,7E0,9E0,1.3E1,1.1E1,8E0,5E0,1.4E1,5.9E1,1.9E1,6E0,1.7E1,7E0,7E0,3.5E1,8E0,7E0,6E0,5E0,5E0,8E0,5E0,6E0,5E0,9E0,2.9E1,3E1,6E0,1.3E1,1E1,2.5E1,5E0,2.4E1,1.5E1,1.5E1,6E0,7E0,5E0,5E0,6E0,1.8E1,9E0,6E0],"tree_param":{"num_deleted":"0","num_feature":"8","num_nodes":"105","size_leaf_vector":"1"}},{"base_weights":[2.3163185E-2,-1.0436038E-1,8.8706064E-1,2.6784733E-2,-3.0215976E-1,7.120648E-1,7.4207656E-2,-4.1969657E-2,3.487147E-1,-5.8679134E-2,-5.318724E-1,4.9900673E-2,3.2898483E-1,-8.0898106E-2,3.994222E-1,3.9163128E-2,2.6253515E-1,-2.3434906E-1,5.193058E-2,-6.408079E-1,1.8781984E-2,2.1977616E-4,2.727432E-2,-4.617039E-1,-2.3745235E-2,2.9811654E-2,1.1780837E-2,8.1367575E-2,4.2825946E-1,-1.8281715E-1,-1.8900681E-2,1.5998599E-1,-1.0435503E-1,-4.5309624E-1,-3.740548E-2,-3.5076145E-2,-8.116556E-3,-6.366225E-2,2.5062093E-1,1.75191E-1,-6.655569E-3,4.0014096E-2,2.4645294E-1,-4.0836814E-3,-1.28961075E-2,8.5601546E-2,2.0009056E-2,-1.4187905E-1,3.2962424E-5,-3.0113215E-2,-1.6619092E-2,1.0429114E-1,-1.8062097E-1,1.4522044E-1,2.0959288E-2,5.9591755E-3,1.2506751E-2,1.8592678E-2,5.6829965E-3,1.4208786E-1,-1.3300914E-3,-3.1920425E-3,-1.211099E-2,3.817655E-1,-2.3690208E-3,-3.0636677E-1,-9.826691E-2,9.3345623E-4,1.5041147E-2,3.8295158E-3,9.72206E-3,1.0032376E-2,2.9721493E-2,-2.502895E-1,1.2627007E-1,-3.3744494E-3,-3.6523664E-1,2.6416004E-2,-1.4533246E-1,-3.7496137E-3,-2.1044608E-2,1.27313845E-2,-3.9823484E-3,-1.4795381E-2,-2.3790298E-2,7.243751E-3,-5.3444477E-3,-1.1519692E-2,-5.01938E-4],"categories":[],"categories_nodes":[],"categories_segments":[],"categories_sizes":[],"default_left":[0,0,0,0,0,0,0,0,0,0,0,0,0,0,0,0,0,0,0,0,0,0,0,0,0,0,0,0,0,0,0,0,0,0,0,0,0,0,0,0,0,0,0,0,0,0,0,0,0,0,0,0,0,0,0,0,0,0,0,0,0,0,0,0,0,0,0,0,0,0,0,0,0,0,0,0,0,0,0,0,0,0,0,0,0,0,0,0,0],"id":10,"left_children":[1,3,5,7,9,11,-1,13,15,17,19,-1,21,23,25,-1,27,29,31,33,-1,-1,-1,35,37,-1,-1,39,41,43,-1,45,47,49,-1,-1,-1,51,53,55,-1,-1,57,-1,-1,59,-1,61,-1,-1,-1,63,65,67,-1,-1,-1,-1,-1,69,-1,-1,-1,71,73,75,77,-1,-1,-1,-1,-1,-1,79,81,-1,83,85,87,-1,-1,-1,-1,-1,-1,-1,-1,-1,-1],"loss_changes":[4.6252663E1,9.502288E0,3.292694E0,4.9062715E0,8.134653E0,2.6328278E0,0E0,3.1767466E0,1.0129256E0,1.4111874E0,7.325266E0,0E0,7.884489E-1,3.6671774E0,2.7205968E-1,0E0,9.5594144E-1,9.069681E-2,7.76633E-1,1.0630226E-1,0E0,0E0,0E0,1.087038E0,1.6368332E0,0E0,0E0,3.419216E-1,7.256501E-1,9.627795E-2,0E0,3.7143397E-1,7.490794E-2,1.5998125E-2,0E0,0E0,0E0,2.572507E0,1.9907188E-1,1.6574979E-2,0E0,0E0,1.18505E-1,0E0,0E0,1.3335401E-1,0E0,7.749784E-2,0E0,0E0,0E0,1.5990593E0,7.672813E-1,1.8900871E-1,0E0,0E0,0E0,0E0,0E0,2.168402E-2,0E0,0E0,0E0,3.6611128E-1,1.3072947E0,4.1157198E-1,2.85516E-1,0E0,0E0,0E0,0E0,0E0,0E0,3.035866E-1,5.6686056E-1,0E0,3.5625935E-2,1.9115421E-1,2.9432207E-1,0E0,0E0,0E0,0E0,0E0,0E0,0E0,0E0,0E0,0E0],"parents":[2147483647,0,0,1,1,2,2,3,3,4,4,5,5,7,7,8,8,9,9,10,10,12,12,13,13,14,14,16,16,17,17,18,18,19,19,23,23,24,24,27,27,28,28,29,29,31,31,32,32,33,33,37,37,38,38,39,39,42,42,45,45,47,47,51,51,52,52,53,53,59,59,63,63,64,64,65,65,66,66,73,73,74,74,76,76,77,77,78,78],"right_children":[2,4,6,8,10,12,-1,14,16,18,20,-1,22,24,26,-1,28,30,32,34,-1,-1,-1,36,38,-1,-1,40,42,44,-1,46,48,50,-1,-1,-1,52,54,56,-1,-1,58,-1,-1,60,-1,62,-1,-1,-1,64,66,68,-1,-1,-1,-1,-1,70,-1,-1,-1,72,74,76,78,-1,-1,-1,-1,-1,-1,80,82,-1,84,86,88,-1,-1,-1,-1,-1,-1,-1,-1,-1,-1],"split_conditions":[1.1263615E0,4.7342047E-2,2.1505613E0,4.258661E-1,-8.8028766E-2,9.620753E-2,7.4207656E-2,1.4550464E0,5.0375974E-1,-9.0520475E-3,1.6328502E0,4.9900673E-2,7.83245E-1,-9.997518E-1,-5.22605E-1,3.9163128E-2,7.6480436E-1,1.1793686E0,-1.3224889E0,2.3063107E-1,1.8781984E-2,2.1977616E-4,2.727432E-2,1.2493031E0,8.7239486E-1,2.9811654E-2,1.1780837E-2,-1.3672069E-1,8.458082E-1,-1.3224889E0,-1.8900681E-2,8.1675E-1,-4.9951547E-1,2.2058627E-1,-3.740548E-2,-3.5076145E-2,-8.116556E-3,-6.431524E-1,-6.910413E-3,-8.8028766E-2,-6.655569E-3,4.0014096E-2,7.3494464E-1,-4.0836814E-3,-1.28961075E-2,7.5257784E-1,2.0009056E-2,3.2517233E-1,3.2962424E-5,-3.0113215E-2,-1.6619092E-2,4.263296E-1,7.0046306E-2,-1.2196172E0,2.0959288E-2,5.9591755E-3,1.2506751E-2,1.8592678E-2,5.6829965E-3,1.7401557E-1,-1.3300914E-3,-3.1920425E-3,-1.211099E-2,-3.2888144E-1,-9.10602E-1,-3.7570292E-1,-6.617434E-1,9.3345623E-4,1.5041147E-2,3.8295158E-3,9.72206E-3,1.0032376E-2,2.9721493E-2,-9.60536E-1,-7.4283457E-1,-3.3744494E-3,1.48429135E-2,-2.9377213E-1,1.5186812E-1,-3.7496137E-3,-2.1044608E-2,1.27313845E-2,-3.9823484E-3,-1.4795381E-2,-2.3790298E-2,7.243751E-3,-5.3444477E-3,-1.1519692E-2,-5.01938E-4],"split_indices":[2,5,2,2,6,5,0,6,2,2,5,0,7,7,2,0,2,5,6,5,0,0,0,6,7,0,0,5,2,6,0,2,6,6,0,0,0,7,2,6,0,0,6,0,0,5,0,2,0,0,0,6,7,6,0,0,0,0,0,2,0,0,0,2,7,7,5,0,0,0,0,0,0,2,5,0,6,6,2,0,0,0,0,0,0,0,0,0,0],"split_type":[0,0,0,0,0,0,0,0,0,0,0,0,0,0,0,0,0,0,0,0,0,0,0,0,0,0,0,0,0,0,0,0,0,0,0,0,0,0,0,0,0,0,0,0,0,0,0,0,0,0,0,0,0,0,0,0,0,0,0,0,0,0,0,0,0,0,0,0,0,0,0,0,0,0,0,0,0,0,0,0,0,0,0,0,0,0,0,0,0],"sum_hessian":[4.18E2,3.65E2,5.3E1,2.2E2,1.45E2,4E1,1.3E1,1.82E2,3.8E1,7.1E1,7.4E1,2.6E1,1.4E1,1.68E2,1.4E1,6E0,3.2E1,2.7E1,4.4E1,6.6E1,8E0,5E0,9E0,2.1E1,1.47E2,7E0,7E0,1.6E1,1.6E1,2E1,7E0,2.6E1,1.8E1,1.2E1,5.4E1,1.3E1,8E0,1.29E2,1.8E1,1.1E1,5E0,5E0,1.1E1,7E0,1.3E1,2E1,6E0,1.3E1,5E0,6E0,6E0,5.3E1,7.6E1,1.1E1,7E0,6E0,5E0,6E0,5E0,1.3E1,7E0,7E0,6E0,1.4E1,3.9E1,2.9E1,4.7E1,6E0,5E0,5E0,8E0,7E0,7E0,1.3E1,2.6E1,6E0,2.3E1,1.3E1,3.4E1,6E0,7E0,1.7E1,9E0,1.1E1,1.2E1,7E0,6E0,2.3E1,1.1E1],"tree_param":{"num_deleted":"0","num_feature":"8","num_nodes":"89","size_leaf_vector":"1"}},{"base_weights":[1.6208291E-2,-1.3280343E-1,6.358809E-1,-3.994324E-1,-3.28228E-3,4.2941046E-1,1.0316453E0,-5.175725E-1,-1.3672817E-1,-6.324965E-2,1.3544354E-1,2.2543988E-1,5.3383565E-1,4.385009E-2,8.0382176E-2,-3.2045983E-2,-3.795857E-1,3.1021887E-2,-3.119297E-1,-1.3301848E-1,7.205612E-2,2.8362975E-2,1.7054617E-1,1.5113105E-2,7.06588E-3,2.0060722E-2,3.1912927E-2,-3.0042144E-2,-2.813255E-1,-1.4720404E-3,-3.7559402E-1,-8.089125E-2,-2.6709777E-1,-2.2556946E-2,1.5736715E-1,6.0888417E-3,-4.2637708E-3,1.887352E-2,1.3335402E-1,-3.4358782E-1,-6.1042407E-3,-5.5047115E-3,-2.9240185E-2,-1.0390951E-1,4.285915E-2,-3.4851012E-1,-5.211904E-3,6.847956E-2,3.246512E-1,1.4095765E-2,1.8221621E-1,-1.1384539E-2,-2.4881626E-2,-1.2708472E-1,7.2037266E-3,1.6511507E-2,-1.4502898E-2,-2.3044167E-1,-2.7830973E-2,1.5228355E-1,-6.9916725E-2,1.2612988E-2,2.4053639E-2,7.232707E-3,-4.1524237E-3,1.2588046E-1,1.5365171E-2,-1.2959628E-2,-9.891032E-2,-1.5714481E-2,-8.469892E-3,6.916516E-2,1.7818779E-2,8.026278E-3,-1.3536165E-2,1.7019947E-1,2.932444E-3,-1.1604564E-2,-6.6495955E-2,-8.1129075E-4,7.4320096E-3,1.1729487E-2,5.2202935E-3,8.567565E-3,-5.8764243E-3],"categories":[],"categories_nodes":[],"categories_segments":[],"categories_sizes":[],"default_left":[0,0,0,0,0,0,0,0,0,0,0,0,0,0,0,0,0,0,0,0,0,0,0,0,0,0,0,0,0,0,0,0,0,0,0,0,0,0,0,0,0,0,0,0,0,0,0,0,0,0,0,0,0,0,0,0,0,0,0,0,0,0,0,0,0,0,0,0,0,0,0,0,0,0,0,0,0,0,0,0,0,0,0,0,0],"id":11,"left_children":[1,3,5,7,9,11,13,15,17,19,21,23,25,-1,-1,-1,27,-1,29,31,33,35,37,-1,-1,-1,-1,-1,39,-1,41,43,45,-1,47,-1,-1,-1,49,51,-1,-1,-1,53,55,57,-1,59,61,63,65,-1,-1,67,-1,-1,-1,69,-1,71,73,-1,-1,-1,-1,75,-1,-1,77,-1,-1,79,-1,-1,-1,81,-1,-1,83,-1,-1,-1,-1,-1,-1],"loss_changes":[3.57271E1,1.0773327E1,5.685528E0,3.0948963E0,1.7638805E0,9.6593475E-1,1.3731289E0,3.551941E-1,4.1942773E0,1.4067233E0,2.357266E-1,5.249715E-2,2.4799347E-2,0E0,0E0,0E0,2.2833371E-1,0E0,4.8067045E-1,6.633339E-1,2.1445763E0,1.5367834E-1,2.5690424E-1,0E0,0E0,0E0,0E0,0E0,1.4366806E-1,0E0,8.656974E-1,2.0954677E-1,3.4812438E-1,0E0,6.32025E-1,0E0,0E0,0E0,2.3634756E-1,8.1848025E-2,0E0,0E0,0E0,3.4675032E-1,1.005862E0,2.0886397E-1,0E0,3.5859203E-1,6.0325503E-2,1.43903E-1,1.194793E-1,0E0,0E0,1.4458376E-1,0E0,0E0,0E0,5.957186E-3,0E0,2.4401057E-1,4.8249885E-1,0E0,0E0,0E0,0E0,5.5788696E-2,0E0,0E0,1.5018493E-1,0E0,0E0,7.778513E-2,0E0,0E0,0E0,1.7641485E-2,0E0,0E0,3.3746082E-1,0E0,0E0,0E0,0E0,0E0,0E0],"parents":[2147483647,0,0,1,1,2,2,3,3,4,4,5,5,6,6,7,7,8,8,9,9,10,10,11,11,12,12,16,16,18,18,19,19,20,20,21,21,22,22,28,28,30,30,31,31,32,32,34,34,38,38,39,39,43,43,44,44,45,45,47,47,48,48,49,49,50,50,53,53,57,57,59,59,60,60,65,65,68,68,71,71,75,75,78,78],"right_children":[2,4,6,8,10,12,14,16,18,20,22,24,26,-1,-1,-1,28,-1,30,32,34,36,38,-1,-1,-1,-1,-1,40,-1,42,44,46,-1,48,-1,-1,-1,50,52,-1,-1,-1,54,56,58,-1,60,62,64,66,-1,-1,68,-1,-1,-1,70,-1,72,74,-1,-1,-1,-1,76,-1,-1,78,-1,-1,80,-1,-1,-1,82,-1,-1,84,-1,-1,-1,-1,-1,-1],"split_conditions":[8.0963105E-1,-6.843833E-1,-5.1348224E-2,1.0017041E-1,2.4558672E-1,1.052629E0,2.1125863E0,-3.161904E-1,-1.7651908E-1,7.863241E-1,-5.722655E-1,-8.128685E-1,1.307449E0,4.385009E-2,8.0382176E-2,-3.2045983E-2,-1.0425209E0,3.1021887E-2,2.4258102E-1,2.532599E-1,-7.836451E-1,-8.255984E-1,-6.401473E-1,1.5113105E-2,7.06588E-3,2.0060722E-2,3.1912927E-2,-3.0042144E-2,5.7550526E-1,-1.4720404E-3,-5.1348224E-2,1.0231216E0,-2.1291551E-1,-2.2556946E-2,-1.0162523E-1,6.0888417E-3,-4.2637708E-3,1.887352E-2,-2.3248339E-1,-7.9201736E-2,-6.1042407E-3,-5.5047115E-3,-2.9240185E-2,1.4029771E0,4.1157025E-1,-4.6947205E-1,-5.211904E-3,8.1188574E-2,-4.2201367E-1,-2.3175289E-1,5.94104E-2,-1.1384539E-2,-2.4881626E-2,-4.2541704E-1,7.2037266E-3,1.6511507E-2,-1.4502898E-2,-6.8363154E-1,-2.7830973E-2,-3.5711765E-1,-3.489374E-1,1.2612988E-2,2.4053639E-2,7.232707E-3,-4.1524237E-3,-2.1211891E-1,1.5365171E-2,-1.2959628E-2,-7.972251E-1,-1.5714481E-2,-8.469892E-3,-4.1511685E-1,1.7818779E-2,8.026278E-3,-1.3536165E-2,-3.5595632E-1,2.932444E-3,-1.1604564E-2,-2.9582188E-1,-8.1129075E-4,7.4320096E-3,1.1729487E-2,5.2202935E-3,8.567565E-3,-5.8764243E-3],"split_indices":[0,0,1,4,0,0,0,4,3,1,3,1,0,0,0,0,0,0,4,1,4,3,4,0,0,0,0,0,3,0,1,4,4,0,0,0,0,0,4,4,0,0,0,3,3,4,0,3,3,3,3,0,0,0,0,0,0,4,0,0,0,0,0,0,0,3,0,0,3,0,0,4,0,0,0,1,0,0,0,0,0,0,0,0,0],"split_type":[0,0,0,0,0,0,0,0,0,0,0,0,0,0,0,0,0,0,0,0,0,0,0,0,0,0,0,0,0,0,0,0,0,0,0,0,0,0,0,0,0,0,0,0,0,0,0,0,0,0,0,0,0,0,0,0,0,0,0,0,0,0,0,0,0,0,0,0,0,0,0,0,0,0,0,0,0,0,0,0,0,0,0,0,0],"sum_hessian":[3.85E2,3.11E2,7.4E1,1.01E2,2.1E2,5E1,2.4E1,6.9E1,3.2E1,1.47E2,6.3E1,1.8E1,3.2E1,1.7E1,7E0,4.6E1,2.3E1,6E0,2.6E1,9.7E1,5E1,1.6E1,4.7E1,1.1E1,7E0,8E0,2.4E1,7E0,1.6E1,5E0,2.1E1,7.1E1,2.6E1,7E0,4.3E1,9E0,7E0,7E0,4E1,1.1E1,5E0,8E0,1.3E1,6E1,1.1E1,1.7E1,9E0,2.9E1,1.4E1,1.2E1,2.8E1,6E0,5E0,5.5E1,5E0,6E0,5E0,1.1E1,6E0,1.8E1,1.1E1,9E0,5E0,5E0,7E0,1.9E1,9E0,1E1,4.5E1,5E0,6E0,1.3E1,5E0,5E0,6E0,1.1E1,8E0,9E0,3.6E1,6E0,7E0,6E0,5E0,5E0,3.1E1],"tree_param":{"num_deleted":"0","num_feature":"8","num_nodes":"85","size_leaf_vector":"1"}},{"base_weights":[1.074472E-2,-8.8730454E-2,6.280388E-1,-1.4666343E-1,4.0209696E-1,4.7761622E-1,7.2773844E-2,6.619703E-2,-2.5950262E-1,2.0793842E-1,7.252414E-2,5.4950434E-1,7.164679E-3,1.0380478E-2,4.2028934E-1,-4.3868642E-2,-4.724613E-1,1.1251266E-1,3.170541E-2,4.287486E-1,3.9834596E-2,1.4429854E-1,-9.963994E-2,1.3333432E-2,3.1444907E-2,1.7264335E-1,-1.2558632E-1,-3.1193498E-1,-5.5414325E-1,-5.8704127E-2,2.5123328E-1,2.9238053E-2,2.8716338E-1,-3.4353815E-2,2.7227536E-1,-1.1763129E-2,-3.039016E-1,2.2540638E-2,3.348283E-2,-2.1866146E-1,-7.02485E-2,-4.617882E-1,-5.417025E-2,-3.3001907E-2,-1.5674619E-2,1.1859552E-2,-1.575432E-2,1.868247E-2,9.249239E-3,8.165982E-3,2.2369336E-2,-1.3433092E-2,8.9564174E-2,3.2281604E-2,4.8131023E-2,6.8488516E-2,-9.581969E-2,-2.391417E-2,-2.337419E-3,-5.842234E-3,7.2917677E-3,-1.6581087E-1,-1.6664779E-2,-1.1172319E-1,4.3627508E-2,-5.1814395E-1,-1.250407E-2,-1.0662688E-2,2.428653E-3,9.810087E-3,-1.4968724E-3,-6.2235403E-3,1.7055186E-2,-1.1505655E-3,8.3774775E-3,1.8085348E-5,-1.439195E-1,-2.9910686E-3,-1.2893325E-2,-2.24422E-2,-1.4798851E-1,-5.118867E-3,9.618605E-3,-3.4195703E-2,-2.0159148E-2,-4.3774312E-3,-1.0878676E-2,-4.3119043E-3,2.0268927E-3,-9.3406685E-2,-1.6448148E-2,-1.5495374E-3,-7.1805418E-3],"categories":[],"categories_nodes":[],"categories_segments":[],"categories_sizes":[],"default_left":[0,0,0,0,0,0,0,0,0,0,0,0,0,0,0,0,0,0,0,0,0,0,0,0,0,0,0,0,0,0,0,0,0,0,0,0,0,0,0,0,0,0,0,0,0,0,0,0,0,0,0,0,0,0,0,0,0,0,0,0,0,0,0,0,0,0,0,0,0,0,0,0,0,0,0,0,0,0,0,0,0,0,0,0,0,0,0,0,0,0,0,0,0],"id":12,"left_children":[1,3,5,7,9,11,-1,13,15,17,-1,19,-1,21,23,25,27,29,-1,31,-1,33,35,-1,-1,37,39,41,43,45,47,-1,49,51,53,55,57,-1,59,61,63,65,67,-1,-1,-1,-1,-1,-1,-1,-1,-1,69,-1,71,73,75,-1,-1,-1,-1,77,-1,79,81,83,-1,-1,-1,-1,-1,-1,-1,-1,-1,-1,85,-1,-1,87,89,-1,-1,-1,-1,-1,-1,-1,-1,91,-1,-1,-1],"loss_changes":[2.3451197E1,9.41412E0,4.813961E0,7.102784E0,5.870117E0,1.0568466E0,0E0,2.031351E0,8.842052E0,9.748137E-1,0E0,4.4201756E-1,0E0,1.3404127E0,2.3217964E-1,1.7378888E0,1.0990162E0,6.0853094E-1,0E0,1.8085432E-1,0E0,9.4675153E-1,8.939185E-1,0E0,0E0,8.627129E-1,3.503301E-1,1.3269258E0,5.1904297E-1,7.9554456E-1,4.495263E-2,0E0,1.3519287E-1,4.8454887E-1,1.6342185E0,2.4940693E-1,4.7944725E-1,0E0,2.5797403E-1,6.2106133E-2,2.2213095E-1,1.7673206E-1,1.972971E-1,0E0,0E0,0E0,0E0,0E0,0E0,0E0,0E0,0E0,1.2651199E-1,0E0,6.5667844E-1,1.4271225E-1,8.328916E-2,0E0,0E0,0E0,0E0,1.2119669E-1,0E0,1.0676417E-1,2.4469525E-1,3.38974E-2,0E0,0E0,0E0,0E0,0E0,0E0,0E0,0E0,0E0,0E0,2.5153175E-2,0E0,0E0,3.8619887E-2,1.6644359E-1,0E0,0E0,0E0,0E0,0E0,0E0,0E0,0E0,4.10572E-2,0E0,0E0,0E0],"parents":[2147483647,0,0,1,1,2,2,3,3,4,4,5,5,7,7,8,8,9,9,11,11,13,13,14,14,15,15,16,16,17,17,19,19,21,21,22,22,25,25,26,26,27,27,28,28,29,29,30,30,32,32,33,33,34,34,35,35,36,36,38,38,39,39,40,40,41,41,42,42,52,52,54,54,55,55,56,56,61,61,63,63,64,64,65,65,76,76,79,79,80,80,89,89],"right_children":[2,4,6,8,10,12,-1,14,16,18,-1,20,-1,22,24,26,28,30,-1,32,-1,34,36,-1,-1,38,40,42,44,46,48,-1,50,52,54,56,58,-1,60,62,64,66,68,-1,-1,-1,-1,-1,-1,-1,-1,-1,70,-1,72,74,76,-1,-1,-1,-1,78,-1,80,82,84,-1,-1,-1,-1,-1,-1,-1,-1,-1,-1,86,-1,-1,88,90,-1,-1,-1,-1,-1,-1,-1,-1,92,-1,-1,-1],"split_conditions":[1.1019888E0,1.2493031E0,2.1697125E0,-3.3024675E-1,-4.2650763E-2,4.1594544E-1,7.2773844E-2,4.0247026E-1,-2.9377213E-1,4.622608E-1,7.252414E-2,7.3494464E-1,7.164679E-3,-7.177216E-1,-5.194788E-1,-1.5282322E0,4.113765E-2,1.4550464E0,3.170541E-2,-8.8028766E-2,3.9834596E-2,-1.0848156E0,7.3494464E-1,1.3333432E-2,3.1444907E-2,1.4171007E-1,-1.439382E-1,-2.5000807E-2,3.5129142E-1,-9.449768E-1,-4.55088E-1,2.9238053E-2,-6.7167336E-1,1.48429135E-2,-9.012623E-1,-4.7937486E-1,1.1464313E0,2.2540638E-2,1.0231216E0,6.70292E-1,1.8605162E-1,-2.9194953E-2,-5.2382725E-1,-3.3001907E-2,-1.5674619E-2,1.1859552E-2,-1.575432E-2,1.868247E-2,9.249239E-3,8.165982E-3,2.2369336E-2,-1.3433092E-2,-4.550151E-2,3.2281604E-2,-7.7913684E-1,-3.8359082E-1,-5.324346E-1,-2.391417E-2,-2.337419E-3,-5.842234E-3,7.2917677E-3,-1.0138738E0,-1.6664779E-2,3.2517233E-1,2.328257E-1,-4.2608872E-1,-1.250407E-2,-1.0662688E-2,2.428653E-3,9.810087E-3,-1.4968724E-3,-6.2235403E-3,1.7055186E-2,-1.1505655E-3,8.3774775E-3,1.8085348E-5,-4.250883E-1,-2.9910686E-3,-1.2893325E-2,1.03423886E-1,6.325376E-1,-5.118867E-3,9.618605E-3,-3.4195703E-2,-2.0159148E-2,-4.3774312E-3,-1.0878676E-2,-4.3119043E-3,2.0268927E-3,-1.23375446E-1,-1.6448148E-2,-1.5495374E-3,-7.1805418E-3],"split_indices":[2,6,2,5,5,5,0,2,6,2,0,6,0,5,4,6,5,6,0,6,0,5,6,0,0,5,2,2,4,2,2,0,4,6,5,5,6,0,4,5,4,4,4,0,0,0,0,0,0,0,0,0,4,0,5,4,2,0,0,0,0,6,0,2,2,2,0,0,0,0,0,0,0,0,0,0,5,0,0,2,5,0,0,0,0,0,0,0,0,5,0,0,0],"split_type":[0,0,0,0,0,0,0,0,0,0,0,0,0,0,0,0,0,0,0,0,0,0,0,0,0,0,0,0,0,0,0,0,0,0,0,0,0,0,0,0,0,0,0,0,0,0,0,0,0,0,0,0,0,0,0,0,0,0,0,0,0,0,0,0,0,0,0,0,0,0,0,0,0,0,0,0,0,0,0,0,0,0,0,0,0,0,0,0,0,0,0,0,0],"sum_hessian":[3.8E2,3.28E2,5.2E1,2.94E2,3.4E1,4.4E1,8E0,1.02E2,1.92E2,2.9E1,5E0,3.6E1,8E0,8.9E1,1.3E1,9.6E1,9.6E1,2.4E1,5E0,2.3E1,1.3E1,4E1,4.9E1,7E0,6E0,2.6E1,7E1,3.4E1,6.2E1,1.1E1,1.3E1,1.2E1,1.1E1,1.7E1,2.3E1,3.5E1,1.4E1,9E0,1.7E1,2.5E1,4.5E1,2.1E1,1.3E1,5.3E1,9E0,5E0,6E0,5E0,8E0,6E0,5E0,6E0,1.1E1,9E0,1.4E1,1.8E1,1.7E1,9E0,5E0,7E0,1E1,1.7E1,8E0,3.3E1,1.2E1,1.6E1,5E0,5E0,8E0,6E0,5E0,9E0,5E0,9E0,9E0,6E0,1.1E1,7E0,1E1,1E1,2.3E1,6E0,6E0,8E0,8E0,6E0,5E0,5E0,5E0,1.8E1,5E0,7E0,1.1E1],"tree_param":{"num_deleted":"0","num_feature":"8","num_nodes":"93","size_leaf_vector":"1"}},{"base_weights":[1.8375738E-3,-1.2656538E-1,4.797615E-1,4.0373757E-2,-2.5890425E-1,5.6317276E-1,-3.2750685E-2,2.1884789E-1,-3.8954932E-2,-3.8101447E-1,-7.147279E-2,4.8659155E-1,6.0047273E-2,1.2770474E-1,2.9667396E-2,-1.0183848E-1,2.6714635E-1,-4.5542437E-1,-2.021746E-1,1.5611635E-1,-1.8163466E-1,3.8939305E-2,3.843032E-1,-8.173308E-3,1.752528E-1,-1.2747661E-2,-2.403404E-1,2.8606586E-2,1.0024938E-1,-3.6294505E-1,-5.671486E-1,1.792693E-3,-2.6194093E-1,-1.0265155E-1,4.4500256E-1,-3.5434088E-1,-5.8780942E-2,5.00663E-1,1.9758438E-1,1.09993644E-1,1.8316321E-2,-1.2924152E-2,3.6416803E-2,-3.0884096E-1,-1.5367274E-1,1.184733E-2,-2.68681E-3,-3.781811E-1,-1.1015245E-2,-3.3847205E-2,-1.9630743E-2,-1.827312E-1,-2.8985882E-2,-1.3746885E-2,7.318118E-3,4.2465992E-2,5.967526E-3,-9.28985E-3,-2.3215318E-2,1.6342374E-2,-1.379915E-1,5.8073044E-1,3.1882298E-1,2.870417E-1,8.203237E-2,-1.9154549E-2,2.4073805E-1,-4.9922463E-2,1.4683701E-1,-1.1503573E-2,-2.0520495E-2,-1.5823288E-3,-2.034573E-1,-4.24108E-1,-3.0268112E-1,-5.55407E-3,-2.201837E-1,1.281297E-1,-3.123254E-1,2.1300131E-2,3.7353065E-2,1.1472577E-2,2.2028191E-2,7.9717655E-3,2.2582404E-2,-3.3450609E-3,1.16974E-2,-6.6649704E-3,3.2700794E-3,1.8423524E-2,7.128133E-3,-9.759536E-2,2.8307294E-3,1.6719269E-2,7.5363465E-2,-1.4759178E-2,-5.3797252E-3,-2.6497357E-2,-1.603036E-2,-8.737145E-3,-1.9069033E-2,-1.447081E-2,-8.457282E-3,-1.3019148E-3,1.4347776E-2,-8.430035E-3,-2.7604124E-2,2.436005E-3,-1.5537642E-1,8.565155E-3,-2.0435173E-3,-4.5274617E-3,-1.2659812E-2],"categories":[],"categories_nodes":[],"categories_segments":[],"categories_sizes":[],"default_left":[0,0,0,0,0,0,0,0,0,0,0,0,0,0,0,0,0,0,0,0,0,0,0,0,0,0,0,0,0,0,0,0,0,0,0,0,0,0,0,0,0,0,0,0,0,0,0,0,0,0,0,0,0,0,0,0,0,0,0,0,0,0,0,0,0,0,0,0,0,0,0,0,0,0,0,0,0,0,0,0,0,0,0,0,0,0,0,0,0,0,0,0,0,0,0,0,0,0,0,0,0,0,0,0,0,0,0,0,0,0,0,0,0],"id":13,"left_children":[1,3,5,7,9,11,-1,13,15,17,19,21,-1,23,-1,25,27,29,31,33,35,-1,37,-1,39,41,43,-1,45,47,49,-1,51,53,55,57,59,61,63,65,-1,-1,67,69,71,-1,-1,73,-1,-1,-1,75,-1,-1,-1,-1,-1,-1,-1,-1,77,79,81,83,85,87,89,91,93,-1,-1,-1,95,97,99,-1,101,103,105,-1,-1,-1,-1,-1,-1,-1,-1,-1,-1,-1,-1,107,-1,-1,109,-1,-1,-1,-1,-1,-1,-1,-1,-1,-1,-1,-1,-1,111,-1,-1,-1,-1],"loss_changes":[2.6080265E1,7.4114532E0,8.360649E0,2.1180847E0,4.252693E0,2.8063583E0,0E0,1.2538915E0,2.0290742E0,1.4116669E0,1.9087296E0,1.3765068E0,0E0,5.093712E-1,0E0,1.0704508E0,6.932262E-1,6.1039925E-1,4.9889088E-1,1.9145421E0,1.0612694E0,0E0,1.0525842E0,0E0,2.864732E-1,5.924564E-1,1.5439034E-1,0E0,2.1199268E-1,4.0355682E-2,9.192753E-2,0E0,4.8123193E-1,5.0808513E-1,1.2125845E0,1.8022013E-1,9.0751153E-1,2.8075218E-1,2.0386672E-1,4.0986094E-1,0E0,0E0,4.3634245E-1,3.4502983E-2,1.0014874E-1,0E0,0E0,1.3797283E-2,0E0,0E0,0E0,4.9239457E-2,0E0,0E0,0E0,0E0,0E0,0E0,0E0,0E0,1.2462606E0,1.22415066E-1,2.2881627E-2,1.4754999E-1,2.1391937E-1,1.0938046E-1,8.0146074E-2,1.3003051E-1,1.9775218E-1,0E0,0E0,0E0,5.393991E-2,2.7430534E-2,5.832529E-2,0E0,1.44732E-3,2.2316627E-1,3.990035E-1,0E0,0E0,0E0,0E0,0E0,0E0,0E0,0E0,0E0,0E0,0E0,0E0,1.5394013E-1,0E0,0E0,1.3834983E-1,0E0,0E0,0E0,0E0,0E0,0E0,0E0,0E0,0E0,0E0,0E0,0E0,0E0,5.1098734E-2,0E0,0E0,0E0,0E0],"parents":[2147483647,0,0,1,1,2,2,3,3,4,4,5,5,7,7,8,8,9,9,10,10,11,11,13,13,15,15,16,16,17,17,18,18,19,19,20,20,22,22,24,24,25,25,26,26,28,28,29,29,30,30,32,32,33,33,34,34,35,35,36,36,37,37,38,38,39,39,42,42,43,43,44,44,47,47,51,51,60,60,61,61,62,62,63,63,64,64,65,65,66,66,67,67,68,68,72,72,73,73,74,74,76,76,77,77,78,78,91,91,94,94,108,108],"right_children":[2,4,6,8,10,12,-1,14,16,18,20,22,-1,24,-1,26,28,30,32,34,36,-1,38,-1,40,42,44,-1,46,48,50,-1,52,54,56,58,60,62,64,66,-1,-1,68,70,72,-1,-1,74,-1,-1,-1,76,-1,-1,-1,-1,-1,-1,-1,-1,78,80,82,84,86,88,90,92,94,-1,-1,-1,96,98,100,-1,102,104,106,-1,-1,-1,-1,-1,-1,-1,-1,-1,-1,-1,-1,108,-1,-1,110,-1,-1,-1,-1,-1,-1,-1,-1,-1,-1,-1,-1,-1,112,-1,-1,-1,-1],"split_conditions":[7.56999E-1,-2.4474093E-1,1.4864239E0,-8.965347E-1,3.820549E-2,2.0573907E0,-3.2750685E-2,-9.6701837E-1,4.258661E-1,1.3991281E-1,-3.2967663E-1,-2.4474093E-1,6.0047273E-2,-6.116652E-1,2.9667396E-2,1.026133E-1,5.178242E-1,3.6023104E-1,-1.1175915E-1,2.4255183E-2,-5.8107334E-1,3.8939305E-2,-3.200737E-2,-8.173308E-3,-8.2935935E-1,-9.059261E-1,-9.3334086E-2,2.8606586E-2,-4.7501722E-1,4.343195E-2,-2.1617682E-1,1.792693E-3,8.055566E-1,-2.3775828E-1,-3.2888144E-1,2.5699082E-1,-3.7610862E-1,4.1594544E-1,1.04273E-1,1.3202101E-2,1.8316321E-2,-1.2924152E-2,-1.9552185E-1,5.957124E-1,-5.675751E-1,1.184733E-2,-2.68681E-3,7.618164E-2,-1.1015245E-2,-3.3847205E-2,-1.9630743E-2,-4.3702194E-1,-2.8985882E-2,-1.3746885E-2,7.318118E-3,4.2465992E-2,5.967526E-3,-9.28985E-3,-2.3215318E-2,1.6342374E-2,4.325273E-1,-3.0314514E-1,1.1296579E0,-4.836044E-1,1.335485E0,-5.618759E-1,5.654509E-1,1.153185E-1,-4.6451786E-1,-1.1503573E-2,-2.0520495E-2,-1.5823288E-3,-3.8066578E-1,-3.759811E-1,-1.230843E0,-5.55407E-3,4.3326116E-1,1.3991281E-1,3.1619102E-1,2.1300131E-2,3.7353065E-2,1.1472577E-2,2.2028191E-2,7.9717655E-3,2.2582404E-2,-3.3450609E-3,1.16974E-2,-6.6649704E-3,3.2700794E-3,1.8423524E-2,7.128133E-3,-8.8663214E-1,2.8307294E-3,1.6719269E-2,-5.540836E-1,-1.4759178E-2,-5.3797252E-3,-2.6497357E-2,-1.603036E-2,-8.737145E-3,-1.9069033E-2,-1.447081E-2,-8.457282E-3,-1.3019148E-3,1.4347776E-2,-8.430035E-3,-2.7604124E-2,2.436005E-3,-3.8591617E-1,8.565155E-3,-2.0435173E-3,-4.5274617E-3,-1.2659812E-2],"split_indices":[2,5,3,5,4,2,0,5,2,2,3,5,0,3,0,3,2,5,5,5,2,0,3,0,2,2,4,0,5,2,4,0,3,2,2,5,2,5,5,4,0,0,4,3,5,0,0,5,0,0,0,3,0,0,0,0,0,0,0,0,5,4,4,4,2,4,4,2,3,0,0,0,5,4,3,0,2,2,3,0,0,0,0,0,0,0,0,0,0,0,0,3,0,0,5,0,0,0,0,0,0,0,0,0,0,0,0,0,5,0,0,0,0],"split_type":[0,0,0,0,0,0,0,0,0,0,0,0,0,0,0,0,0,0,0,0,0,0,0,0,0,0,0,0,0,0,0,0,0,0,0,0,0,0,0,0,0,0,0,0,0,0,0,0,0,0,0,0,0,0,0,0,0,0,0,0,0,0,0,0,0,0,0,0,0,0,0,0,0,0,0,0,0,0,0,0,0,0,0,0,0,0,0,0,0,0,0,0,0,0,0,0,0,0,0,0,0,0,0,0,0,0,0,0,0,0,0,0,0],"sum_hessian":[4.23E2,3.34E2,8.9E1,1.48E2,1.86E2,8.3E1,6E0,4.5E1,1.03E2,1.12E2,7.4E1,7.4E1,9E0,3.6E1,9E0,8.6E1,1.7E1,7.8E1,3.4E1,2.4E1,5E1,2.2E1,5.2E1,5E0,3.1E1,5.3E1,3.3E1,6E0,1.1E1,4.5E1,3.3E1,7E0,2.7E1,1.3E1,1.1E1,2E1,3E1,3.1E1,2.1E1,2.3E1,8E0,9E0,4.4E1,1.7E1,1.6E1,6E0,5E0,4E1,5E0,2.6E1,7E0,2.2E1,5E0,8E0,5E0,5E0,6E0,6E0,1.4E1,5E0,2.5E1,2E1,1.1E1,1.1E1,1E1,1.2E1,1.1E1,2.5E1,1.9E1,8E0,9E0,5E0,1.1E1,2.2E1,1.8E1,8E0,1.4E1,1E1,1.5E1,8E0,1.2E1,6E0,5E0,6E0,5E0,5E0,5E0,5E0,7E0,5E0,6E0,1.7E1,8E0,5E0,1.4E1,6E0,5E0,1.4E1,8E0,5E0,1.3E1,7E0,7E0,5E0,5E0,9E0,6E0,5E0,1.2E1,8E0,6E0,7E0,5E0],"tree_param":{"num_deleted":"0","num_feature":"8","num_nodes":"113","size_leaf_vector":"1"}},{"base_weights":[-6.556348E-3,-1.5300253E-1,4.7446075E-1,-1.9040072E-1,7.146775E-2,5.451934E-1,-3.2382656E-2,-2.0105444E-1,1.51509335E-2,2.8448064E-2,-1.6222667E-2,9.007341E-1,3.478138E-1,-1.0053207E-1,-2.5747663E-1,7.1543396E-2,-2.5934437E-2,3.217092E-2,5.7727087E-2,1.8860362E-1,4.742022E-1,-3.0276707E-1,4.9188342E-2,-4.2525265E-1,-1.2145337E-1,-8.64944E-2,1.7590907E-1,6.1876465E-2,2.1391664E-2,2.9547427E-2,8.5642645E-3,-8.60542E-2,-4.2559728E-1,-6.838971E-2,2.407327E-1,-4.6593758E-1,-2.733965E-1,-1.5492012E-1,-5.5999875E-2,4.9821846E-3,-1.1542535E-2,-2.7098095E-3,2.5964502E-1,-3.0203959E-2,1.3091407E-2,-1.7575331E-2,8.614366E-3,-3.118525E-1,-3.0748256E-2,2.3625556E-2,-2.11769E-1,1.4833063E-1,1.7677484E-2,-1.5214738E-2,-4.8461682E-1,-3.2747298E-1,-6.6465093E-3,-1.0202458E-3,-1.7683901E-1,-1.1280413E-1,4.141356E-3,1.9137688E-2,6.9681033E-3,4.602444E-3,-6.8205525E-3,-2.2410095E-2,-5.9481324E-3,-6.764078E-2,7.2632576E-3,-1.9279284E-2,2.2357026E-4,1.2077717E-2,3.0249516E-3,-3.711499E-1,-2.9501623E-2,-1.1385925E-2,-2.1418054E-2,-2.3764727E-1,-1.1390681E-1,-2.31994E-3,-1.3683E-1,-6.4378222E-3,-2.3226962E-6,-2.975552E-2,-2.5790593E-1,-1.4322803E-2,-8.420861E-3,-7.3204026E-2,-1.3183458E-2,-9.708556E-3,-2.4652765E-3,-5.640761E-3,-1.9719275E-2,-6.925057E-3,-1.3437846E-3],"categories":[],"categories_nodes":[],"categories_segments":[],"categories_sizes":[],"default_left":[0,0,0,0,0,0,0,0,0,0,0,0,0,0,0,0,0,0,0,0,0,0,0,0,0,0,0,0,0,0,0,0,0,0,0,0,0,0,0,0,0,0,0,0,0,0,0,0,0,0,0,0,0,0,0,0,0,0,0,0,0,0,0,0,0,0,0,0,0,0,0,0,0,0,0,0,0,0,0,0,0,0,0,0,0,0,0,0,0,0,0,0,0,0,0],"id":14,"left_children":[1,3,5,7,9,11,-1,13,-1,-1,15,17,19,21,23,25,-1,-1,-1,27,29,31,33,35,37,39,41,43,-1,-1,-1,45,47,49,51,53,55,57,59,-1,-1,-1,61,63,-1,-1,-1,65,-1,67,69,71,-1,-1,73,75,-1,-1,77,79,-1,-1,-1,-1,-1,-1,-1,81,-1,-1,-1,-1,-1,83,-1,-1,-1,85,87,-1,89,-1,-1,-1,91,-1,-1,93,-1,-1,-1,-1,-1,-1,-1],"loss_changes":[2.6559206E1,2.4396987E0,6.900549E0,1.2787046E0,1.6316633E0,5.51136E0,0E0,1.3523369E0,0E0,0E0,1.4576023E0,6.909313E-1,1.0172915E0,2.7096977E0,3.4856749E0,5.265205E-1,0E0,0E0,0E0,6.238653E-1,4.731164E-1,9.7489285E-1,1.1875771E0,2.9891396E-1,1.8189931E-1,2.9659486E-1,3.70166E-1,2.7925593E-1,0E0,0E0,0E0,8.8258225E-1,1.7692232E-1,4.4037494E-1,9.613681E-2,5.7296753E-2,1.021229E-1,1.6735315E-1,2.3833549E-1,0E0,0E0,0E0,1.1633968E-1,1.3583732E-1,0E0,0E0,0E0,2.3830795E-1,0E0,2.1422268E-1,3.8116854E-1,5.9543014E-2,0E0,0E0,5.1308632E-2,6.4320564E-3,0E0,0E0,1.6044343E-1,3.182912E-2,0E0,0E0,0E0,0E0,0E0,0E0,0E0,3.9158475E-2,0E0,0E0,0E0,0E0,0E0,1.7875576E-1,0E0,0E0,0E0,2.7019978E-3,1.1329311E-1,0E0,4.8418194E-2,0E0,0E0,0E0,1.4621508E-1,0E0,0E0,4.9973413E-2,0E0,0E0,0E0,0E0,0E0,0E0,0E0],"parents":[2147483647,0,0,1,1,2,2,3,3,4,4,5,5,7,7,10,10,11,11,12,12,13,13,14,14,15,15,19,19,20,20,21,21,22,22,23,23,24,24,25,25,26,26,27,27,31,31,32,32,33,33,34,34,35,35,36,36,37,37,38,38,42,42,43,43,47,47,49,49,50,50,51,51,54,54,55,55,58,58,59,59,67,67,73,73,77,77,78,78,80,80,84,84,87,87],"right_children":[2,4,6,8,10,12,-1,14,-1,-1,16,18,20,22,24,26,-1,-1,-1,28,30,32,34,36,38,40,42,44,-1,-1,-1,46,48,50,52,54,56,58,60,-1,-1,-1,62,64,-1,-1,-1,66,-1,68,70,72,-1,-1,74,76,-1,-1,78,80,-1,-1,-1,-1,-1,-1,-1,82,-1,-1,-1,-1,-1,84,-1,-1,-1,86,88,-1,90,-1,-1,-1,92,-1,-1,94,-1,-1,-1,-1,-1,-1,-1],"split_conditions":[7.56999E-1,4.462532E-1,1.4864239E0,1.8530432E0,-4.6485275E-1,-2.8655306E-1,-3.2382656E-2,-6.431524E-1,1.51509335E-2,2.8448064E-2,5.400413E-1,1.3026477E0,8.7239486E-1,-9.997518E-1,7.0046306E-2,3.3749583E-1,-2.5934437E-2,3.217092E-2,5.7727087E-2,1.335485E0,4.0830377E-2,-2.4732386E-1,-5.3504324E-1,-2.5000807E-2,-1.439382E-1,-4.303363E-1,-4.1076842E-1,-7.9201736E-2,2.1391664E-2,2.9547427E-2,8.5642645E-3,-6.036136E-1,4.7469324E-1,1.908801E-1,-2.2704786E-1,-1.2109501E0,-3.5750034E-1,3.3749583E-1,3.6651087E-1,4.9821846E-3,-1.1542535E-2,-2.7098095E-3,9.209339E-1,-2.6185614E-1,1.3091407E-2,-1.7575331E-2,8.614366E-3,-5.716573E-1,-3.0748256E-2,1.0017041E-1,6.240259E-1,-3.2888144E-1,1.7677484E-2,-1.5214738E-2,-3.7570292E-1,-5.901406E-1,-6.6465093E-3,-1.0202458E-3,6.940952E-1,-5.129562E-1,4.141356E-3,1.9137688E-2,6.9681033E-3,4.602444E-3,-6.8205525E-3,-2.2410095E-2,-5.9481324E-3,4.3279298E-2,7.2632576E-3,-1.9279284E-2,2.2357026E-4,1.2077717E-2,3.0249516E-3,-6.3145053E-1,-2.9501623E-2,-1.1385925E-2,-2.1418054E-2,-3.478464E-1,7.137766E-1,-2.31994E-3,1.501772E-1,-6.4378222E-3,-2.3226962E-6,-2.975552E-2,-4.8762824E-2,-1.4322803E-2,-8.420861E-3,6.97315E-2,-1.3183458E-2,-9.708556E-3,-2.4652765E-3,-5.640761E-3,-1.9719275E-2,-6.925057E-3,-1.3437846E-3],"split_indices":[2,2,3,7,7,7,0,7,0,0,3,2,7,7,7,7,0,0,0,2,3,3,2,2,2,4,4,4,0,0,0,2,3,3,4,2,4,7,4,0,0,0,4,3,0,0,0,2,0,4,3,2,0,0,7,4,0,0,7,4,0,0,0,0,0,0,0,3,0,0,0,0,0,4,0,0,0,2,3,0,4,0,0,0,4,0,0,4,0,0,0,0,0,0,0],"split_type":[0,0,0,0,0,0,0,0,0,0,0,0,0,0,0,0,0,0,0,0,0,0,0,0,0,0,0,0,0,0,0,0,0,0,0,0,0,0,0,0,0,0,0,0,0,0,0,0,0,0,0,0,0,0,0,0,0,0,0,0,0,0,0,0,0,0,0,0,0,0,0,0,0,0,0,0,0,0,0,0,0,0,0,0,0,0,0,0,0,0,0,0,0,0,0],"sum_hessian":[3.75E2,2.88E2,8.7E1,2.47E2,4.1E1,8.2E1,5E0,2.42E2,5E0,6E0,3.5E1,2.8E1,5.4E1,8.8E1,1.54E2,3E1,5E0,1E1,1.8E1,2.5E1,2.9E1,3.7E1,5.1E1,6.8E1,8.6E1,1.2E1,1.8E1,1.6E1,9E0,2.4E1,5E0,1.4E1,2.3E1,3.2E1,1.9E1,5.2E1,1.6E1,5.6E1,3E1,5E0,7E0,5E0,1.3E1,1.1E1,5E0,7E0,7E0,1.4E1,9E0,2E1,1.2E1,1E1,9E0,6E0,4.6E1,1.1E1,5E0,8E0,4.8E1,2.1E1,9E0,7E0,6E0,5E0,6E0,9E0,5E0,1.1E1,9E0,7E0,5E0,5E0,5E0,1.6E1,3E1,5E0,6E0,2.3E1,2.5E1,6E0,1.5E1,6E0,5E0,5E0,1.1E1,1.7E1,6E0,2E1,5E0,1E1,5E0,5E0,6E0,9E0,1.1E1],"tree_param":{"num_deleted":"0","num_feature":"8","num_nodes":"95","size_leaf_vector":"1"}},{"base_weights":[-2.6393246E-3,-1.519932E-1,4.7681302E-1,-3.488753E-1,1.6343258E-2,3.8495246E-1,6.581414E-2,1.2236838E-3,-3.702275E-1,-5.5331457E-2,1.4039873E-1,2.8430474E-1,3.697548E-2,-4.4277483E-1,-2.4648958E-1,4.077017E-2,-1.3769734E-1,6.872038E-2,4.4527823E-1,1.707755E-1,4.8532602E-1,-2.6321197E-1,-2.6144695E-2,-1.2942375E-1,-3.014274E-1,-1.8971157E-1,1.07233845E-1,-1.9216864E-1,-6.8581276E-2,-1.41184945E-2,1.153555E-1,1.2241336E-2,3.5177164E-2,-7.302114E-3,2.4334772E-1,1.4412424E-2,3.232325E-2,-2.1716028E-3,-2.6754111E-2,-1.7435716E-1,-2.5461263E-3,-3.7110856E-1,-1.7913319E-1,-2.580633E-3,-1.8061237E-2,1.9118974E-1,-2.253857E-2,-3.0092547E-2,-2.7183884E-1,3.4116153E-3,-1.3339858E-1,2.3648387E-2,5.0379887E-2,9.338284E-3,-6.856357E-3,2.5473427E-2,1.8648413E-1,-1.7316358E-2,-1.7572673E-3,-2.773835E-2,-2.4383125E-1,-8.9646934E-4,-1.5883578E-2,3.2578032E-2,3.6030424E-1,3.9025724E-3,-5.249985E-3,-6.032788E-3,3.6957604E-3,-1.1372842E-2,-1.9212887E-2,-1.6170295E-2,-3.8186964E-2,-6.1206906E-3,1.7639298E-2,2.4518324E-1,1.375327E-1,-6.1162896E-3,-1.9032445E-2,-1.3771062E-3,6.2873177E-3,1.0213808E-2,2.8104234E-2,-7.6471902E-3,2.2891173E-3,-1.1971828E-2,4.6459075E-2,8.647692E-3,1.631628E-2,2.3444996E-3,1.7373039E-1,8.851411E-2,-6.8029948E-3,1.4333447E-2,4.254377E-3,1.0463265E-2,-1.5635153E-4],"categories":[],"categories_nodes":[],"categories_segments":[],"categories_sizes":[],"default_left":[0,0,0,0,0,0,0,0,0,0,0,0,0,0,0,0,0,0,0,0,0,0,0,0,0,0,0,0,0,0,0,0,0,0,0,0,0,0,0,0,0,0,0,0,0,0,0,0,0,0,0,0,0,0,0,0,0,0,0,0,0,0,0,0,0,0,0,0,0,0,0,0,0,0,0,0,0,0,0,0,0,0,0,0,0,0,0,0,0,0,0,0,0,0,0,0,0],"id":15,"left_children":[1,3,5,7,9,11,-1,-1,13,15,17,19,-1,21,23,25,27,29,31,33,35,37,-1,39,41,43,45,47,49,-1,51,-1,-1,53,55,-1,-1,-1,-1,57,-1,59,61,-1,-1,63,65,67,69,-1,71,-1,73,-1,-1,-1,75,-1,-1,-1,77,-1,-1,79,81,-1,-1,-1,-1,-1,-1,-1,83,85,-1,87,89,-1,-1,-1,-1,-1,-1,-1,-1,-1,91,-1,-1,-1,93,95,-1,-1,-1,-1,-1],"loss_changes":[3.014786E1,1.0644424E1,6.0497437E0,1.1802769E0,1.554914E0,2.354556E0,0E0,0E0,1.1476212E0,8.8423395E-1,1.3680091E0,1.4689999E0,0E0,3.1331444E-1,3.082807E-1,8.1691396E-1,2.127111E-1,8.275207E-1,3.680048E-1,5.8333397E-1,3.729682E-1,6.6679084E-1,0E0,6.3359976E-2,2.4029994E-1,2.1780416E-1,4.5101067E-1,4.179368E-1,2.4414961E-1,0E0,9.266428E-1,0E0,0E0,3.0606356E-1,3.0628288E-1,0E0,0E0,0E0,0E0,2.2551605E-1,0E0,2.3760867E-1,2.566601E-1,0E0,0E0,6.5885055E-1,1.2022919E-1,9.830186E-2,3.848982E-2,0E0,2.7428088E-1,0E0,6.0589963E-1,0E0,0E0,0E0,4.386121E-2,0E0,0E0,0E0,1.3410217E-1,0E0,0E0,6.757382E-2,2.1542895E-1,0E0,0E0,0E0,0E0,0E0,0E0,0E0,1.0839484E-1,3.8444173E-1,0E0,2.0938516E-3,5.1320612E-2,0E0,0E0,0E0,0E0,0E0,0E0,0E0,0E0,0E0,2.09793E-1,0E0,0E0,0E0,7.854983E-2,2.1035275E-1,0E0,0E0,0E0,0E0,0E0],"parents":[2147483647,0,0,1,1,2,2,3,3,4,4,5,5,8,8,9,9,10,10,11,11,13,13,14,14,15,15,16,16,17,17,18,18,19,19,20,20,21,21,23,23,24,24,25,25,26,26,27,27,28,28,30,30,33,33,34,34,39,39,41,41,42,42,45,45,46,46,47,47,48,48,50,50,52,52,56,56,60,60,63,63,64,64,72,72,73,73,75,75,76,76,86,86,90,90,91,91],"right_children":[2,4,6,8,10,12,-1,-1,14,16,18,20,-1,22,24,26,28,30,32,34,36,38,-1,40,42,44,46,48,50,-1,52,-1,-1,54,56,-1,-1,-1,-1,58,-1,60,62,-1,-1,64,66,68,70,-1,72,-1,74,-1,-1,-1,76,-1,-1,-1,78,-1,-1,80,82,-1,-1,-1,-1,-1,-1,-1,84,86,-1,88,90,-1,-1,-1,-1,-1,-1,-1,-1,-1,92,-1,-1,-1,94,96,-1,-1,-1,-1,-1],"split_conditions":[4.9211448E-1,-4.9853492E-1,2.2476723E0,-1.0561497E0,7.863241E-1,9.3862814E-1,6.581414E-2,1.2236838E-3,-7.6181537E-1,-2.798043E-1,3.0397674E-1,1.268621E0,3.697548E-2,-1.2750025E-1,-3.5595632E-1,-1.5743887E0,-1.3099349E-2,-4.1124168E-1,-4.0750712E-1,-2.1943814E-1,-1.7595398E-1,4.7466256E-2,-2.6144695E-2,-6.605644E-1,8.624761E-1,1.9341463E-2,-6.605644E-1,-3.9387268E-1,6.875908E-2,-1.41184945E-2,-7.103986E-1,1.2241336E-2,3.5177164E-2,-7.1189624E-1,-1.7266928E0,1.4412424E-2,3.232325E-2,-2.1716028E-3,-2.6754111E-2,-6.9267553E-1,-2.5461263E-3,-2.1617682E-1,7.844703E-2,-2.580633E-3,-1.8061237E-2,4.589147E-1,-3.5750034E-1,-2.8962395E-1,3.5520088E-2,3.4116153E-3,1.8277816E-1,2.3648387E-2,1.9997908E-1,9.338284E-3,-6.856357E-3,2.5473427E-2,1.7409348E-1,-1.7316358E-2,-1.7572673E-3,-2.773835E-2,1.251738E-1,-8.9646934E-4,-1.5883578E-2,1.3903533E-1,-1.1936287E0,3.9025724E-3,-5.249985E-3,-6.032788E-3,3.6957604E-3,-1.1372842E-2,-1.9212887E-2,-1.6170295E-2,-6.847186E-1,-7.836451E-1,1.7639298E-2,-2.9194953E-2,8.720142E-1,-6.1162896E-3,-1.9032445E-2,-1.3771062E-3,6.2873177E-3,1.0213808E-2,2.8104234E-2,-7.6471902E-3,2.2891173E-3,-1.1971828E-2,1.7026989E-1,8.647692E-3,1.631628E-2,2.3444996E-3,7.4497354E-1,-2.78677E-1,-6.8029948E-3,1.4333447E-2,4.254377E-3,1.0463265E-2,-1.5635153E-4],"split_indices":[0,0,0,3,1,1,0,0,0,1,3,0,0,1,1,1,0,0,4,4,4,3,0,1,1,0,1,0,0,0,3,0,0,4,1,0,0,0,0,0,0,4,3,0,0,4,4,3,3,0,0,0,0,0,0,0,4,0,0,0,4,0,0,3,1,0,0,0,0,0,0,0,4,4,0,4,4,0,0,0,0,0,0,0,0,0,3,0,0,0,0,0,0,0,0,0,0],"split_type":[0,0,0,0,0,0,0,0,0,0,0,0,0,0,0,0,0,0,0,0,0,0,0,0,0,0,0,0,0,0,0,0,0,0,0,0,0,0,0,0,0,0,0,0,0,0,0,0,0,0,0,0,0,0,0,0,0,0,0,0,0,0,0,0,0,0,0,0,0,0,0,0,0,0,0,0,0,0,0,0,0,0,0,0,0,0,0,0,0,0,0,0,0,0,0,0,0],"sum_hessian":[4.19E2,3.2E2,9.9E1,1.47E2,1.73E2,8.9E1,1E1,8E0,1.39E2,1.1E2,6.3E1,6.7E1,2.2E1,8.6E1,5.3E1,5.1E1,5.9E1,5.2E1,1.1E1,4.4E1,2.3E1,1.3E1,7.3E1,1.8E1,3.5E1,1.1E1,4E1,3.2E1,2.7E1,6E0,4.6E1,6E0,5E0,1.3E1,3.1E1,8E0,1.5E1,7E0,6E0,1.1E1,7E0,2.1E1,1.4E1,6E0,5E0,2.4E1,1.6E1,1.1E1,2.1E1,9E0,1.8E1,7E0,3.9E1,5E0,8E0,5E0,2.6E1,5E0,6E0,9E0,1.2E1,6E0,8E0,1.3E1,1.1E1,7E0,9E0,6E0,5E0,1.3E1,8E0,6E0,1.2E1,3.3E1,6E0,1E1,1.6E1,6E0,6E0,8E0,5E0,6E0,5E0,5E0,7E0,6E0,2.7E1,5E0,5E0,5E0,1.1E1,2.2E1,5E0,5E0,6E0,1E1,1.2E1],"tree_param":{"num_deleted":"0","num_feature":"8","num_nodes":"97","size_leaf_vector":"1"}},{"base_weights":[2.1364717E-2,-8.748536E-2,5.0114757E-1,-2.8524834E-1,-2.4501348E-2,5.6619203E-1,-2.0756988E-2,-3.319747E-1,2.053396E-2,1.0218028E-1,-9.481834E-2,8.059008E-1,3.8021147E-1,-2.3746431E-1,-2.9036794E-2,-2.849575E-2,2.513234E-1,-1.8953563E-1,1.3439952E-1,5.333374E-1,5.1601745E-2,4.3283674E-1,7.4037258E-3,-3.5098314E-1,3.0252175E-2,-1.0770779E-1,1.6879366E-1,4.1752134E-2,1.6788417E-1,-2.5946075E-1,-4.8473533E-2,2.4272282E-1,7.1241364E-2,1.7149305E-2,3.607756E-2,3.3089206E-1,5.3321534E-1,-4.3251866E-1,-1.1153064E-1,1.2006173E-2,-9.0818144E-2,6.77323E-3,-1.4740448E-1,2.4133021E-4,2.3033466E-2,-4.3455483E-3,3.3171967E-1,-3.559408E-1,-1.5408221E-1,5.4037776E-3,-1.7268375E-2,8.682263E-2,2.3700098E-2,-6.1920166E-2,1.3182986E-1,2.8618181E-2,2.3506922E-1,3.3640288E-2,1.7294444E-2,-5.155824E-1,-1.1100437E-2,-1.8561257E-3,-9.499657E-3,-2.575826E-3,-6.6710603E-3,5.25374E-4,-1.768038E-1,-1.338947E-1,1.7785773E-2,3.540169E-2,1.87315E-1,-2.6255223E-1,-4.1761217E-1,-1.5854066E-2,-1.22500114E-1,-1.6987108E-1,9.281605E-2,-3.2218555E-3,1.20619275E-2,-1.2845878E-3,-5.0199754E-3,3.2770506E-3,1.7442994E-1,1.649698E-2,5.142555E-3,-3.749547E-2,-2.0977914E-2,-2.6686588E-1,-7.41129E-2,-1.5796019E-2,4.374683E-3,1.3924042E-2,4.389567E-3,-1.8616613E-2,-6.7057423E-3,-2.7358335E-2,-3.220237E-1,1.1404946E-3,-1.4786962E-1,-5.8286963E-3,-1.2068071E-2,1.7887573E-1,6.236645E-3,1.2132043E-2,5.509397E-3,-1.0519087E-2,-1.8803462E-2,4.0404745E-3,-1.0738414E-2,-1.01904E-2,-2.3023095E-2,-1.7428015E-1,-4.4574765E-3,1.3452843E-2,5.4990477E-3,-8.365755E-3,6.837157E-3,-5.935407E-3,-1.3594959E-2],"categories":[],"categories_nodes":[],"categories_segments":[],"categories_sizes":[],"default_left":[0,0,0,0,0,0,0,0,0,0,0,0,0,0,0,0,0,0,0,0,0,0,0,0,0,0,0,0,0,0,0,0,0,0,0,0,0,0,0,0,0,0,0,0,0,0,0,0,0,0,0,0,0,0,0,0,0,0,0,0,0,0,0,0,0,0,0,0,0,0,0,0,0,0,0,0,0,0,0,0,0,0,0,0,0,0,0,0,0,0,0,0,0,0,0,0,0,0,0,0,0,0,0,0,0,0,0,0,0,0,0,0,0,0,0,0,0,0,0],"id":16,"left_children":[1,3,5,7,9,11,-1,13,-1,15,17,19,21,23,-1,25,27,29,31,33,-1,35,-1,37,39,41,43,-1,45,47,49,51,53,-1,-1,55,57,59,61,-1,63,-1,65,-1,-1,67,69,71,73,75,-1,77,-1,79,81,-1,83,-1,-1,85,-1,-1,-1,-1,-1,-1,87,89,-1,-1,91,93,95,-1,97,99,101,-1,-1,-1,-1,-1,103,-1,-1,-1,-1,105,107,-1,-1,-1,-1,-1,-1,-1,109,-1,111,-1,-1,113,115,-1,-1,-1,-1,-1,-1,-1,-1,117,-1,-1,-1,-1,-1,-1,-1],"loss_changes":[2.2030315E1,4.2778425E0,4.650387E0,2.6629581E0,2.3435507E0,2.9480133E0,0E0,1.2828541E0,0E0,1.8391682E0,3.6946146E0,5.457878E-1,5.0100374E-1,1.6517246E0,0E0,8.15193E-1,1.7111664E0,1.1710768E0,3.2478315E-1,1.127193E-1,0E0,1.8172073E-1,0E0,6.9366837E-1,4.0231702E-1,3.553069E-1,6.04884E-1,0E0,1.1019177E0,7.585101E-1,5.8145034E-1,4.793532E-1,2.744088E-1,0E0,0E0,2.322793E-1,6.8721294E-2,4.3802643E-1,4.5423433E-2,0E0,8.751728E-3,0E0,1.4924711E-1,0E0,0E0,8.8390565E-1,7.635596E-1,1.264906E-1,1.3100898E-1,5.5200773E-1,0E0,2.2029614E-1,0E0,1.0056954E-2,6.1059684E-2,0E0,1.0494292E-1,0E0,0E0,1.8490267E-1,0E0,0E0,0E0,0E0,0E0,0E0,2.2993284E-1,5.0258994E-1,0E0,0E0,8.315766E-2,1.5529597E-1,6.263256E-3,0E0,1.2641418E-1,1.414147E-2,1.7770833E-1,0E0,0E0,0E0,0E0,0E0,2.4690658E-2,0E0,0E0,0E0,0E0,1.3635278E-2,2.5924662E-1,0E0,0E0,0E0,0E0,0E0,0E0,0E0,9.057844E-2,0E0,3.7793398E-2,0E0,0E0,3.6730886E-2,2.5688738E-1,0E0,0E0,0E0,0E0,0E0,0E0,0E0,0E0,6.8897426E-2,0E0,0E0,0E0,0E0,0E0,0E0,0E0],"parents":[2147483647,0,0,1,1,2,2,3,3,4,4,5,5,7,7,9,9,10,10,11,11,12,12,13,13,15,15,16,16,17,17,18,18,19,19,21,21,23,23,24,24,25,25,26,26,28,28,29,29,30,30,31,31,32,32,35,35,36,36,37,37,38,38,40,40,42,42,45,45,46,46,47,47,48,48,49,49,51,51,53,53,54,54,56,56,59,59,66,66,67,67,70,70,71,71,72,72,74,74,75,75,76,76,82,82,87,87,88,88,96,96,98,98,101,101,102,102,111,111],"right_children":[2,4,6,8,10,12,-1,14,-1,16,18,20,22,24,-1,26,28,30,32,34,-1,36,-1,38,40,42,44,-1,46,48,50,52,54,-1,-1,56,58,60,62,-1,64,-1,66,-1,-1,68,70,72,74,76,-1,78,-1,80,82,-1,84,-1,-1,86,-1,-1,-1,-1,-1,-1,88,90,-1,-1,92,94,96,-1,98,100,102,-1,-1,-1,-1,-1,104,-1,-1,-1,-1,106,108,-1,-1,-1,-1,-1,-1,-1,110,-1,112,-1,-1,114,116,-1,-1,-1,-1,-1,-1,-1,-1,118,-1,-1,-1,-1,-1,-1,-1],"split_conditions":[8.544731E-1,-6.020987E-1,1.0289854E0,6.940952E-1,-6.431524E-1,-4.6485275E-1,-2.0756988E-2,1.647275E-1,2.053396E-2,-5.4170644E-1,8.7239486E-1,1.4093716E0,3.5003585E-1,-1.827262E-1,-2.9036794E-2,5.654509E-1,-4.582405E-1,-2.5000807E-2,5.592373E-3,-3.9120057E-1,5.1601745E-2,1.4708505E0,7.4037258E-3,-6.8580574E-1,-1.0825338E-1,-5.096949E-1,-8.2145214E-1,4.1752134E-2,-9.10602E-1,7.0046306E-2,5.400413E-1,-4.3702194E-1,4.4478235E-1,1.7149305E-2,3.607756E-2,-8.320924E-1,2.0313427E0,-2.2285536E-1,-7.4519366E-1,1.2006173E-2,6.202488E-1,6.77323E-3,-1.4923954E0,2.4133021E-4,2.3033466E-2,-2.0095737E-1,-4.0750712E-1,-3.7570292E-1,-1.0131534E0,-3.1184196E-1,-1.7268375E-2,1.7401557E-1,2.3700098E-2,-3.1238067E-1,1.3181441E0,2.8618181E-2,1.2273749E0,3.3640288E-2,1.7294444E-2,-9.449768E-1,-1.1100437E-2,-1.8561257E-3,-9.499657E-3,-2.575826E-3,-6.6710603E-3,5.25374E-4,-9.403293E-1,-2.5000807E-2,1.7785773E-2,3.540169E-2,-3.640792E-1,-4.6485275E-1,-4.0495273E-1,-1.5854066E-2,-8.093619E-1,3.6941674E-1,-3.640792E-1,-3.2218555E-3,1.20619275E-2,-1.2845878E-3,-5.0199754E-3,3.2770506E-3,2.4885778E-1,1.649698E-2,5.142555E-3,-3.749547E-2,-2.0977914E-2,-8.2145214E-1,-6.4268637E-1,-1.5796019E-2,4.374683E-3,1.3924042E-2,4.389567E-3,-1.8616613E-2,-6.7057423E-3,-2.7358335E-2,-1.6380945E-1,1.1404946E-3,1.8605162E-1,-5.8286963E-3,-1.2068071E-2,1.5919615E-1,-1.762695E-2,1.2132043E-2,5.509397E-3,-1.0519087E-2,-1.8803462E-2,4.0404745E-3,-1.0738414E-2,-1.01904E-2,-2.3023095E-2,-4.3380284E-1,-4.4574765E-3,1.3452843E-2,5.4990477E-3,-8.365755E-3,6.837157E-3,-5.935407E-3,-1.3594959E-2],"split_indices":[2,4,3,7,7,7,0,3,0,2,7,2,3,2,0,4,2,2,4,4,0,2,0,4,7,4,7,0,7,7,3,3,4,0,0,3,7,3,3,0,2,0,2,0,0,4,4,7,2,4,0,2,0,3,7,0,2,0,0,2,0,0,0,0,0,0,2,2,0,0,3,7,2,0,2,2,3,0,0,0,0,0,2,0,0,0,0,7,2,0,0,0,0,0,0,0,3,0,4,0,0,7,3,0,0,0,0,0,0,0,0,2,0,0,0,0,0,0,0],"split_type":[0,0,0,0,0,0,0,0,0,0,0,0,0,0,0,0,0,0,0,0,0,0,0,0,0,0,0,0,0,0,0,0,0,0,0,0,0,0,0,0,0,0,0,0,0,0,0,0,0,0,0,0,0,0,0,0,0,0,0,0,0,0,0,0,0,0,0,0,0,0,0,0,0,0,0,0,0,0,0,0,0,0,0,0,0,0,0,0,0,0,0,0,0,0,0,0,0,0,0,0,0,0,0,0,0,0,0,0,0,0,0,0,0,0,0,0,0,0,0],"sum_hessian":[4.2E2,3.43E2,7.7E1,8.2E1,2.61E2,7.2E1,5E0,7.7E1,5E0,9.3E1,1.68E2,3E1,4.2E1,5.3E1,2.4E1,5E1,4.3E1,1.19E2,4.9E1,1.1E1,1.9E1,3.4E1,8E0,3.7E1,1.6E1,3.6E1,1.4E1,5E0,3.8E1,7.9E1,4E1,1.7E1,3.2E1,5E0,6E0,1.9E1,1.5E1,2.7E1,1E1,6E0,1E1,5E0,3.1E1,9E0,5E0,1.9E1,1.9E1,4E1,3.9E1,3.4E1,6E0,1E1,7E0,1E1,2.2E1,5E0,1.4E1,1E1,5E0,1.9E1,8E0,5E0,5E0,5E0,5E0,5E0,2.6E1,1.4E1,5E0,5E0,1.4E1,1.8E1,2.2E1,6E0,3.3E1,1.1E1,2.3E1,5E0,5E0,5E0,5E0,9E0,1.3E1,9E0,5E0,7E0,1.2E1,1.3E1,1.3E1,8E0,6E0,8E0,6E0,1.1E1,7E0,1E1,1.2E1,5E0,2.8E1,6E0,5E0,1.1E1,1.2E1,7E0,6E0,8E0,5E0,6E0,7E0,6E0,6E0,1.9E1,9E0,5E0,6E0,5E0,7E0,1.1E1,8E0],"tree_param":{"num_deleted":"0","num_feature":"8","num_nodes":"119","size_leaf_vector":"1"}},{"base_weights":[8.88484E-3,-3.471983E-2,3.278449E-1,1.4597294E-1,-1.4381443E-1,5.6213904E-2,2.2227538E-1,2.0781802E-1,-1.5077665E-1,-1.0396408E-1,-2.8404626E-1,2.9947183E-1,2.703165E-2,2.8746107E-1,1.16520464E-1,2.3600182E-3,-2.1617811E-2,-1.76749E-1,1.8210381E-2,1.465889E-3,-3.3012044E-1,6.3325544E-3,3.6172435E-1,8.03993E-3,-7.46719E-3,3.9917722E-1,1.284973E-1,5.1464286E-2,2.894255E-1,1.4324328E-2,-1.0922696E-2,-1.0151684E-1,-2.6902944E-1,-4.4044238E-2,2.07727E-1,-3.9005587E-1,-1.5277185E-1,7.1592955E-3,4.2261598E-1,2.8344297E-1,3.084666E-2,-2.067059E-3,1.8278788E-1,2.0496468E-1,-6.423011E-2,2.1566119E-2,9.258776E-3,5.323508E-3,-1.3822675E-1,-4.1755906E-1,-1.21621005E-1,-1.4602808E-2,-7.3859277E-3,2.588216E-2,4.7947146E-2,-5.6225546E-3,-4.580415E-1,-3.1886626E-2,2.023212E-2,2.7408298E-2,1.1683924E-2,4.4741088E-1,8.389821E-4,2.1079356E-2,6.27752E-2,2.709032E-1,4.0023406E-3,-1.7199251E-1,5.168277E-3,-8.785891E-2,-1.8327819E-1,-2.6413413E-2,-9.654483E-3,-1.6329212E-2,-1.704938E-2,2.2312121E-2,-7.179248E-2,4.0774408E-4,4.4741197E-3,-3.344296E-2,-3.120759E-1,3.5646632E-2,1.049929E-2,4.9982464E-4,6.8873004E-3,1.9264404E-2,8.318313E-3,-1.1018066E-2,-5.760731E-3,-1.4722924E-1,2.2572333E-3,-1.2270226E-2,-6.716063E-3,-1.0169917E-2,8.456934E-3,-1.4431097E-2,-2.8412018E-2,-9.95332E-3,-2.5510706E-2,-1.675621E-1,-4.367227E-3,8.445926E-3,-9.4911866E-2,-6.307445E-3,-1.1752803E-2,8.343925E-3,-1.0273004E-2],"categories":[],"categories_nodes":[],"categories_segments":[],"categories_sizes":[],"default_left":[0,0,0,0,0,0,0,0,0,0,0,0,0,0,0,0,0,0,0,0,0,0,0,0,0,0,0,0,0,0,0,0,0,0,0,0,0,0,0,0,0,0,0,0,0,0,0,0,0,0,0,0,0,0,0,0,0,0,0,0,0,0,0,0,0,0,0,0,0,0,0,0,0,0,0,0,0,0,0,0,0,0,0,0,0,0,0,0,0,0,0,0,0,0,0,0,0,0,0,0,0,0,0,0,0,0,0],"id":17,"left_children":[1,3,5,7,9,-1,11,13,15,17,19,21,23,25,27,29,-1,31,33,-1,35,-1,37,-1,-1,39,41,43,45,-1,-1,47,49,51,53,55,57,-1,59,61,-1,-1,63,65,67,-1,-1,-1,69,71,73,-1,75,-1,77,-1,79,-1,-1,-1,-1,81,-1,-1,83,85,-1,87,-1,89,91,-1,-1,93,-1,-1,95,-1,-1,-1,97,-1,-1,-1,-1,-1,-1,-1,-1,99,-1,-1,-1,-1,-1,-1,101,-1,-1,103,-1,-1,105,-1,-1,-1,-1],"loss_changes":[5.4355607E0,6.8021297E0,3.1705785E0,2.417159E0,1.1719513E0,0E0,6.2493396E-1,7.517967E-1,8.4086114E-1,1.5060443E0,6.809695E-1,3.050921E-1,2.6662987E-1,9.6095943E-1,5.70029E-1,8.1372046E-1,0E0,7.085891E-1,7.6423943E-1,0E0,3.7621832E-1,0E0,2.57401E-1,0E0,0E0,4.393201E-1,2.3172489E-1,7.057712E-1,1.0515952E-1,0E0,0E0,4.479807E-1,9.782584E-1,3.9124918E-1,6.3801503E-1,5.426879E-1,2.823775E0,0E0,1.5197778E-1,9.1721034E-1,0E0,0E0,4.2485213E-1,1.2944996E-1,4.0585542E-1,0E0,0E0,0E0,9.962374E-2,2.4268103E-1,4.8293832E-1,0E0,1.1619464E0,0E0,1.3975879E-2,0E0,3.170023E-1,0E0,0E0,0E0,0E0,5.317333E-1,0E0,0E0,4.1694053E-2,4.926753E-2,0E0,4.651159E-3,0E0,2.0434453E-1,3.433132E-2,0E0,0E0,5.059556E-1,0E0,0E0,3.026173E-1,0E0,0E0,0E0,1.915977E-1,0E0,0E0,0E0,0E0,0E0,0E0,0E0,0E0,1.1927843E-2,0E0,0E0,0E0,0E0,0E0,0E0,3.985154E-1,0E0,0E0,6.8896413E-3,0E0,0E0,5.5770046E-1,0E0,0E0,0E0,0E0],"parents":[2147483647,0,0,1,1,2,2,3,3,4,4,6,6,7,7,8,8,9,9,10,10,11,11,12,12,13,13,14,14,15,15,17,17,18,18,20,20,22,22,25,25,26,26,27,27,28,28,31,31,32,32,33,33,34,34,35,35,36,36,38,38,39,39,42,42,43,43,44,44,48,48,49,49,50,50,52,52,54,54,56,56,61,61,64,64,65,65,67,67,69,69,70,70,73,73,76,76,80,80,89,89,96,96,99,99,102,102],"right_children":[2,4,6,8,10,-1,12,14,16,18,20,22,24,26,28,30,-1,32,34,-1,36,-1,38,-1,-1,40,42,44,46,-1,-1,48,50,52,54,56,58,-1,60,62,-1,-1,64,66,68,-1,-1,-1,70,72,74,-1,76,-1,78,-1,80,-1,-1,-1,-1,82,-1,-1,84,86,-1,88,-1,90,92,-1,-1,94,-1,-1,96,-1,-1,-1,98,-1,-1,-1,-1,-1,-1,-1,-1,100,-1,-1,-1,-1,-1,-1,102,-1,-1,104,-1,-1,106,-1,-1,-1,-1],"split_conditions":[1.2493031E0,-2.798043E-1,-7.6268077E-1,6.327507E-1,5.5680484E-1,5.6213904E-2,-2.0639288E-1,-8.890205E-1,-1.9090044E-1,7.863241E-1,-1.9090044E-1,9.3862814E-1,2.8347792E-2,-6.0238713E-1,2.2058627E-1,2.2986036E-2,-2.1617811E-2,-8.8028766E-2,-2.2704786E-1,1.465889E-3,8.3781636E-1,6.3325544E-3,-4.1964722E-1,8.03993E-3,-7.46719E-3,-1.3224889E0,-1.8789968E0,-1.5282322E0,1.251738E-1,1.4324328E-2,-1.0922696E-2,-7.434222E-1,4.263296E-1,-9.1409755E-1,-7.9201736E-2,6.6439766E-1,8.572313E-1,7.1592955E-3,2.1952617E-1,-1.631104E0,3.084666E-2,-2.067059E-3,-3.759811E-1,-2.1211891E-1,-7.0525885E-1,2.1566119E-2,9.258776E-3,5.323508E-3,-5.1348224E-2,1.1011196E-1,8.168965E-2,-1.4602808E-2,-8.3908737E-1,2.588216E-2,1.251738E-1,-5.6225546E-3,-6.3145053E-1,-3.1886626E-2,2.023212E-2,2.7408298E-2,1.1683924E-2,-1.6505408E0,8.389821E-4,2.1079356E-2,-1.1174766E0,1.0017041E-1,4.0023406E-3,-4.550151E-2,5.168277E-3,-4.9951547E-1,3.2941192E-1,-2.6413413E-2,-9.654483E-3,-5.412209E-1,-1.704938E-2,2.2312121E-2,-7.379867E-1,4.0774408E-4,4.4741197E-3,-3.344296E-2,1.501772E-1,3.5646632E-2,1.049929E-2,4.9982464E-4,6.8873004E-3,1.9264404E-2,8.318313E-3,-1.1018066E-2,-5.760731E-3,2.2986036E-2,2.2572333E-3,-1.2270226E-2,-6.716063E-3,-1.0169917E-2,8.456934E-3,-1.4431097E-2,4.263296E-1,-9.95332E-3,-2.5510706E-2,-2.6509652E-1,-4.367227E-3,8.445926E-3,-6.0862136E-1,-6.307445E-3,-1.1752803E-2,8.343925E-3,-1.0273004E-2],"split_indices":[6,1,3,3,3,0,4,1,6,1,6,1,3,6,6,4,0,6,4,0,6,0,3,0,0,6,1,6,4,0,0,4,6,4,4,3,3,0,3,6,0,0,4,3,6,0,0,0,1,3,4,0,4,0,4,0,4,0,0,0,0,1,0,0,1,4,0,4,0,6,1,0,0,4,0,0,4,0,0,0,4,0,0,0,0,0,0,0,0,4,0,0,0,0,0,0,6,0,0,4,0,0,4,0,0,0,0],"split_type":[0,0,0,0,0,0,0,0,0,0,0,0,0,0,0,0,0,0,0,0,0,0,0,0,0,0,0,0,0,0,0,0,0,0,0,0,0,0,0,0,0,0,0,0,0,0,0,0,0,0,0,0,0,0,0,0,0,0,0,0,0,0,0,0,0,0,0,0,0,0,0,0,0,0,0,0,0,0,0,0,0,0,0,0,0,0,0,0,0,0,0,0,0,0,0,0,0,0,0,0,0,0,0,0,0,0,0],"sum_hessian":[3.89E2,3.43E2,4.6E1,1.29E2,2.14E2,5E0,4.1E1,1.07E2,2.2E1,1.68E2,4.6E1,2.9E1,1.2E1,5.6E1,5.1E1,1.4E1,8E0,1.05E2,6.3E1,6E0,4E1,8E0,2.1E1,7E0,5E0,3.2E1,2.4E1,3.8E1,1.3E1,6E0,8E0,5.9E1,4.6E1,4.8E1,1.5E1,2.9E1,1.1E1,5E0,1.6E1,2E1,1.2E1,6E0,1.8E1,1.6E1,2.2E1,6E0,7E0,9E0,5E1,2.2E1,2.4E1,6E0,4.2E1,5E0,1E1,6E0,2.3E1,6E0,5E0,1.1E1,5E0,1.2E1,8E0,6E0,1.2E1,1E1,6E0,1.3E1,9E0,2.5E1,2.5E1,1.7E1,5E0,1.6E1,8E0,5E0,3.7E1,5E0,5E0,1E1,1.3E1,6E0,6E0,7E0,5E0,5E0,5E0,8E0,5E0,1.7E1,8E0,1.4E1,1.1E1,8E0,8E0,6E0,3.1E1,8E0,5E0,1.2E1,5E0,8E0,2.3E1,7E0,5E0,6E0,1.7E1],"tree_param":{"num_deleted":"0","num_feature":"8","num_nodes":"107","size_leaf_vector":"1"}},{"base_weights":[-5.2867825E-3,-7.664439E-2,2.4867502E-1,-1.525774E-1,1.7683218E-1,3.1424124E-2,7.775102E-1,-2.1967196E-1,-5.913209E-2,8.630008E-2,3.3020312E-1,-1.9018228E-1,3.902252E-1,4.9566705E-2,1.9677838E-2,-4.536704E-2,-3.01651E-1,9.40826E-3,-8.08463E-2,9.556815E-3,2.8462898E-2,4.4236118E-1,-6.5191383E-3,-2.9497528E-1,-2.848474E-3,9.634182E-3,5.087112E-1,2.219503E-1,-2.6809892E-1,-3.8783315E-1,1.373403E-1,-1.2819377E-1,1.1936251E-2,-6.554756E-2,1.2631011E-1,2.8729632E-1,3.6567118E-2,-3.7099367E-1,4.2107998E-4,-8.039286E-3,5.9891194E-3,1.8405225E-2,3.277188E-2,2.5177972E-2,1.21301286E-1,-2.8833842E-2,-1.6148351E-1,-1.2597668E-1,-4.2448887E-1,1.9522822E-3,1.1824552E-2,-1.569886E-1,2.467543E-3,-2.2816021E-2,7.736895E-3,-8.16054E-3,-3.2111324E-2,7.2376676E-2,1.1337097E-2,1.8406665E-2,9.619599E-3,-4.07522E-1,-1.20981885E-2,-4.735755E-3,2.2295037E-1,6.6859736E-3,-3.359409E-1,-1.1178888E-2,-1.6477548E-3,-4.495523E-1,-1.0014363E-2,-1.7955941E-1,-9.235278E-2,9.640141E-3,-1.0972752E-2,4.7488973E-2,-8.935378E-3,4.6722736E-2,-6.9363415E-3,9.1729726E-4,6.4519225E-3,-2.6607972E-2,-1.2234628E-2,6.7369686E-3,1.5963305E-2,-2.347685E-2,-1.18606E-2,-3.2751095E-1,-2.717204E-2,-5.5081435E-3,-1.0859756E-2,-4.8389428E-4,-7.4031404E-3,-3.4241828E-3,9.079426E-3,8.163773E-3,-3.4065766E-3,-1.0969691E-2,-2.1785755E-2],"categories":[],"categories_nodes":[],"categories_segments":[],"categories_sizes":[],"default_left":[0,0,0,0,0,0,0,0,0,0,0,0,0,0,0,0,0,0,0,0,0,0,0,0,0,0,0,0,0,0,0,0,0,0,0,0,0,0,0,0,0,0,0,0,0,0,0,0,0,0,0,0,0,0,0,0,0,0,0,0,0,0,0,0,0,0,0,0,0,0,0,0,0,0,0,0,0,0,0,0,0,0,0,0,0,0,0,0,0,0,0,0,0,0,